-120 27 47 -32 
63 95 -113 17 
-21 67 -51 -13 
32 78 74 -85 

40 17 -83 -90 
126 126 70 -100 
-125 -127 76 15 
39 -113 38 -85 

90 -2 -20 50 
59 0 -46 -17 
7 -102 -96 -25 
31 -70 -78 98 

-64 -73 121 72 
42 37 -107 41 
98 -31 86 25 
-25 84 93 -71 

-127 103 68 -34 
62 -101 2 92 
123 -20 -77 24 
-80 88 -30 50 

-126 -35 -101 53 
-44 111 -84 -80 
67 -119 -50 66 
-42 -20 106 -118 

27 16 109 -39 
-49 -81 59 21 
63 64 -55 113 
-111 -120 114 -7 

-124 -96 106 36 
63 124 -58 108 
-93 4 8 -33 
28 43 -113 -11 

110 82 -56 55 
82 33 73 99 
-99 28 122 47 
-126 -17 -127 50 

-105 45 98 -96 
98 77 69 -60 
-51 -41 13 -11 
81 -74 45 43 

-86 0 68 -79 
-58 121 -13 -76 
71 40 86 -112 
99 81 55 50 

121 -109 13 -110 
-50 -35 52 -79 
-64 61 22 -24 
117 80 -35 123 

78 -114 -65 -112 
-64 -106 10 -42 
55 73 39 47 
105 10 -117 -25 

65 77 15 27 
53 -91 -58 -115 
-110 105 -10 85 
31 -58 -9 -46 

-111 22 27 -45 
84 -21 76 -12 
93 -127 -50 84 
-5 2 -99 115 

23 107 -14 -61 
-123 41 -120 74 
33 5 48 -45 
-107 110 -45 -92 

-125 -119 91 29 
-60 -49 90 34 
-81 -106 45 80 
-121 -99 -97 86 

40 125 14 -48 
-103 -34 67 105 
-33 115 103 36 
-69 -71 107 -49 

-76 42 61 21 
125 -64 45 -38 
63 -52 -103 -4 
-54 30 24 9 

123 68 126 -46 
122 -84 84 40 
-91 102 -119 71 
-114 125 70 59 

-84 84 -18 40 
9 109 93 23 
-65 116 -37 24 
3 -11 47 1 

91 -105 83 -100 
69 -11 -127 1 
96 -113 114 -91 
-98 -26 -106 123 

48 -103 102 23 
-71 84 52 -46 
51 30 -38 -90 
119 59 -48 17 

-119 -50 50 19 
39 94 105 -106 
125 -14 -124 72 
-14 121 74 -86 

43 93 98 103 
120 72 -62 -96 
-52 115 -39 -62 
-1 -107 8 101 

4 20 -86 -78 
50 87 -19 60 
124 -106 69 61 
122 -37 -89 65 

57 -25 32 -51 
-34 109 -73 -20 
-18 -74 106 -103 
111 101 121 39 

10 6 -16 38 
-40 -17 68 -110 
-41 -16 -104 20 
104 20 -103 49 

48 109 4 76 
-72 16 -13 -33 
6 -105 -120 -100 
-74 -72 17 -19 

85 -2 114 -80 
111 71 54 120 
61 -47 -104 -35 
32 80 67 9 

87 -30 74 94 
79 -67 -21 114 
-33 12 95 -61 
-12 68 -65 -89 

-12 99 64 -62 
2 101 -28 -41 
2 -14 56 113 
-58 -105 -70 97 


43 21 -104 76 
88 101 -94 -103 
106 127 32 77 
-75 -99 21 83 

-105 45 -70 19 
126 89 80 69 
-113 27 63 50 
-31 -7 -29 -104 

-119 -20 -99 125 
-82 33 -128 -8 
39 57 -103 -111 
21 35 -113 11 

101 52 118 16 
118 81 25 5 
101 49 -106 -89 
-120 -44 31 93 

-104 -63 -38 -113 
106 -5 25 19 
98 -125 85 68 
99 74 -70 87 

-17 -112 -123 -111 
20 -2 48 -84 
-2 103 81 90 
103 -100 -7 -16 

-45 40 3 90 
78 18 -93 -11 
-121 56 113 99 
-54 -73 -113 -55 

-9 73 -119 -4 
63 105 116 91 
42 20 44 121 
83 30 -33 -47 

119 -115 123 -24 
22 -85 -56 -29 
-115 67 -16 96 
-109 32 -66 44 

62 111 -106 109 
-46 -26 68 -63 
-54 -14 -110 -89 
0 -37 11 -84 

-10 89 3 -2 
101 51 -70 -40 
16 45 19 125 
-57 102 -35 11 

-42 27 60 -39 
27 104 -1 51 
98 -95 86 20 
71 -50 -127 12 

60 21 -12 43 
-95 -29 -5 98 
-3 -44 20 48 
20 -70 -124 57 

82 -47 -55 80 
-2 3 42 -124 
-126 89 78 -64 
-108 -56 -112 -27 

117 63 93 70 
-22 112 -10 106 
-69 105 -57 -116 
-76 -46 112 24 

99 -67 -81 -57 
-62 -75 -101 -23 
88 28 110 37 
4 -66 -62 111 

107 -16 101 -58 
-84 1 -13 117 
118 45 -79 27 
-91 52 -8 -81 

-88 -25 123 18 
-35 43 25 -90 
20 13 -97 -53 
95 -5 -60 94 

-95 -65 -58 102 
-110 -46 91 102 
61 -116 68 104 
-21 -98 52 60 

-25 -4 10 3 
58 -15 -10 77 
-9 -12 -75 -126 
6 22 -27 30 

-58 -14 -22 115 
-91 69 -62 -21 
-71 69 -106 118 
-61 -98 -90 71 

-101 113 -65 5 
-119 -104 -108 -21 
92 26 -21 56 
88 -95 -113 22 

-99 -4 9 37 
-29 65 40 23 
18 84 38 79 
69 -71 -118 -34 

39 105 -28 92 
67 -106 -52 41 
101 97 -97 74 
-22 -65 48 -90 

125 -103 -95 72 
-60 111 -32 113 
112 -34 47 -37 
21 -113 108 -71 

22 -21 33 62 
-126 52 -33 -11 
-71 -57 -115 39 
-115 -82 -95 -45 

62 60 96 70 
28 -18 81 -83 
-23 49 85 9 
-31 -28 66 -2 

-47 -24 -102 -4 
-38 88 -91 121 
-68 -123 36 -119 
20 117 125 -83 

-25 -6 -61 120 
-80 126 -109 94 
-80 -120 -48 49 
106 2 33 40 

-57 53 -92 -103 
-27 72 -80 45 
-46 36 -51 106 
20 -78 -53 -22 

89 -127 -25 -47 
68 95 -19 29 
-15 -111 16 -23 
96 -127 81 -117 

47 -49 8 -39 
-18 110 -79 18 
-88 -107 103 82 
1 7 -112 21 


-127 111 66 126 
-64 -110 -127 -80 
-28 51 -29 -68 
-62 -98 -116 22 

-82 -15 107 68 
-29 -112 -39 0 
-64 -64 27 -117 
-63 -117 53 102 

71 49 89 83 
95 -73 9 74 
-72 -30 -113 -60 
45 85 72 101 

-8 -59 83 -50 
37 4 -15 45 
64 -15 -112 -85 
7 -109 32 -4 

-55 -100 -38 57 
-93 -5 78 123 
33 -66 -58 63 
-46 -127 29 -88 

8 -107 -17 -43 
-39 60 -20 -22 
116 -61 68 -75 
9 43 104 -13 

32 1 -78 29 
125 107 75 116 
-55 42 -128 124 
31 -48 -28 -57 

80 113 -57 59 
-119 -6 85 44 
52 -14 98 -122 
43 15 66 114 

68 62 11 -87 
-58 87 -114 -94 
83 87 9 -100 
30 115 92 54 

-36 -13 -32 -54 
23 -49 91 -79 
-80 -37 -119 72 
40 -29 -107 -125 

1 7 -13 43 
-114 -81 74 -15 
72 -111 -8 82 
-14 -31 -81 26 

-23 -100 -40 36 
115 -14 88 -51 
-40 -38 73 49 
31 125 -55 -4 

-65 -83 -122 -94 
76 -68 109 7 
54 100 96 38 
101 -110 18 38 

28 -112 -4 -13 
-90 95 121 -118 
-21 32 93 83 
41 -89 -14 -109 

19 -114 -68 -105 
5 25 102 -54 
113 -20 45 -69 
0 -31 54 91 

-79 -122 -97 -17 
-112 -116 21 -30 
112 38 25 -124 
67 -12 -18 -9 

50 60 -92 -104 
87 -79 -55 67 
33 -33 -7 -51 
87 -60 21 -126 

66 23 66 81 
120 -59 -43 -121 
50 55 57 100 
115 -27 -14 -93 

-87 54 29 60 
-108 122 96 120 
-116 55 -22 -49 
-52 -83 2 -79 

111 3 -116 -114 
-43 -73 -7 -125 
-24 -74 110 112 
-120 13 45 -75 

91 4 -47 33 
58 -55 -48 20 
-123 95 101 40 
6 -18 -97 -9 

-29 38 -93 -128 
6 -49 24 101 
-24 56 54 -23 
54 -54 58 74 

-56 4 -5 93 
-123 -62 -85 105 
13 62 -65 -21 
-121 42 37 29 

69 17 105 25 
26 -45 83 80 
-57 61 -80 60 
14 -16 -42 33 

48 58 42 -114 
109 -7 -104 -75 
45 -68 4 122 
-101 -8 -17 -11 

-36 -82 33 -109 
-124 91 123 98 
69 52 11 -39 
120 -93 -82 -102 

63 -86 95 87 
58 42 31 125 
-61 16 117 -18 
-107 24 -8 -47 

29 61 91 21 
-47 -86 99 64 
122 50 -80 83 
-26 58 -115 -2 

-29 58 -119 -74 
98 -20 16 -38 
-83 -30 93 -36 
50 20 -51 -110 

39 66 88 -49 
-16 -22 123 23 
85 99 90 32 
98 24 9 -38 

-58 -116 112 -123 
17 71 117 63 
-95 19 -104 -14 
-25 -32 108 -88 

-59 76 -50 115 
49 52 -70 58 
69 16 -16 -70 
-72 44 113 11 


86 0 56 111 
-37 -70 38 -9 
-56 55 28 -89 
46 37 77 38 

-34 68 -73 98 
-122 -74 -26 117 
102 -98 72 82 
19 103 114 78 

-124 -44 18 13 
70 -46 48 27 
-100 -84 -112 -91 
26 0 17 86 

-5 -125 -103 -39 
-92 94 -73 -2 
-60 84 26 -2 
-14 48 29 -126 

5 114 -68 53 
104 -102 68 -105 
-51 -123 -45 97 
103 -128 -18 108 

121 -107 21 -18 
-13 52 -72 -114 
-26 75 36 56 
10 -45 54 123 

-59 73 34 11 
-122 -60 -112 -123 
42 120 115 45 
-100 65 73 118 

109 17 70 22 
123 -55 -33 -28 
45 -89 -23 94 
117 40 79 -44 

-123 -1 19 56 
-61 1 -13 31 
-6 68 -1 -105 
49 95 84 6 

-42 -125 -75 -14 
67 -15 -65 -42 
94 84 1 -104 
-27 98 39 105 

-2 15 59 96 
66 -82 -31 40 
-87 -115 49 121 
23 -98 26 101 

-111 -59 -83 33 
97 -33 115 -116 
89 102 122 -8 
5 119 -79 -120 

34 -18 -33 13 
29 102 106 -61 
69 -20 70 81 
89 106 120 66 

-101 26 -122 58 
54 -93 13 -126 
16 -8 -120 -103 
59 -67 26 21 

122 -44 -108 54 
-45 -32 49 118 
88 -18 -127 18 
-9 56 20 -27 

-24 76 -5 82 
-60 34 50 -30 
-31 38 121 -93 
109 -28 12 71 

-86 18 2 58 
78 -24 21 -46 
64 -57 -37 52 
-72 19 125 -74 

-4 -100 -117 27 
109 -69 109 99 
-11 64 -112 4 
-111 -12 -40 -87 

-43 53 126 -43 
8 -4 -65 85 
123 -20 86 43 
24 -124 13 -18 

-37 51 -50 63 
-24 -36 -58 -52 
-124 -57 -100 43 
-75 3 122 95 

-21 -26 49 30 
-127 39 115 19 
-59 -44 -1 -91 
98 111 38 109 

-38 -122 -99 5 
-24 -48 -34 68 
63 -101 67 78 
-76 70 23 -101 

-111 -82 -124 -126 
94 -29 -71 16 
-34 98 51 84 
-32 70 -24 -77 

-6 76 34 -22 
91 76 124 65 
53 112 -28 -48 
-101 -18 45 124 

-24 121 43 11 
64 -21 -121 -37 
4 89 -83 27 
124 24 -128 -92 

-11 -86 -99 16 
-3 -30 -27 114 
39 11 97 -66 
-57 -97 86 8 

109 92 -84 -69 
39 108 -80 -94 
-4 25 14 -33 
5 -122 82 109 

-69 -46 -112 52 
-54 84 -101 -7 
107 -102 -44 9 
56 46 36 -30 

-87 13 -53 101 
-96 23 -39 110 
67 126 -36 -3 
-71 -119 29 -32 

-3 -95 -115 56 
-23 -104 125 105 
116 -20 -5 -35 
-3 -95 -17 -104 

20 -29 105 13 
-18 -14 117 102 
-78 67 -17 -88 
20 82 68 108 

-56 9 -45 -72 
-97 -74 96 27 
114 26 -94 1 
28 -83 82 -90 


31 51 6 -47 
97 111 42 109 
-95 49 12 101 
85 112 -127 -125 

-8 -121 49 -40 
-33 -2 1 68 
-120 -116 -10 100 
-103 47 -108 4 

21 32 -5 -111 
-78 117 112 90 
26 -17 18 85 
-89 8 40 10 

77 124 -72 56 
104 106 103 -29 
10 105 29 -47 
-61 123 122 88 

78 -25 -25 -71 
111 -125 -22 89 
-57 -117 -99 -91 
80 123 91 77 

86 -9 31 -63 
82 -54 46 -31 
111 47 -120 -99 
-36 29 -19 -28 

-59 39 -119 63 
4 -21 -106 -42 
65 62 31 -47 
-67 -109 -101 -72 

49 51 47 -89 
45 7 69 -59 
-119 53 96 99 
20 88 -104 -71 

-92 -31 16 62 
-91 -99 -112 -34 
20 6 -37 -101 
69 18 -94 5 

22 65 -98 -102 
-36 -93 -104 108 
-35 67 21 58 
-104 -89 35 -82 

-93 -26 -2 73 
-116 -116 -71 3 
60 76 123 -69 
0 8 -9 -32 

-27 -19 -28 -117 
-121 -67 -96 -88 
-39 -93 -28 2 
84 116 -29 90 

-126 -23 -70 7 
47 -9 -100 7 
-19 -45 -69 54 
113 110 -100 121 

-71 -1 93 -62 
-26 85 -10 -40 
124 -39 -15 25 
98 93 28 51 

118 22 78 103 
61 -6 83 52 
-59 -110 -32 -14 
-24 10 -35 41 

-20 -92 57 -124 
63 16 -43 73 
9 55 59 59 
-106 -66 -115 37 

-117 -23 121 -86 
110 -19 -95 9 
-104 106 64 -17 
29 24 -68 40 

-15 40 103 111 
-102 -126 51 8 
81 -95 -38 10 
-120 16 -102 79 

-89 -5 114 62 
-96 53 -107 -29 
-51 -95 -13 -116 
45 -60 -45 -5 

31 -6 -100 -77 
127 -26 65 88 
-35 17 -99 82 
89 -114 -115 37 

96 46 98 100 
-111 108 -123 126 
-83 -72 -14 -94 
91 -36 25 -110 

36 31 -16 116 
120 46 -122 124 
89 -66 -56 -24 
48 -81 -52 -65 

-110 -19 84 -81 
43 -42 39 -50 
53 49 -58 -103 
-109 -15 73 -40 

-60 -53 59 -11 
-7 76 115 81 
50 -90 -117 95 
-35 -62 -83 -66 

-12 -44 119 -19 
-36 63 24 85 
-67 -60 -35 -89 
-109 -30 -12 102 

93 -46 -128 -61 
-36 -93 8 31 
-40 -87 96 39 
-116 -76 -120 -71 

79 17 111 104 
98 -44 -118 70 
63 104 -32 99 
104 26 -114 114 

74 -1 -84 21 
-2 -68 -117 85 
26 -69 80 33 
-101 5 48 -106 

-7 -122 108 -126 
-93 125 80 -120 
34 26 -70 -53 
50 43 -88 44 

95 -66 -82 114 
38 78 -104 99 
-44 -17 -61 91 
-13 94 -17 -34 

62 -69 -17 -55 
-52 -19 119 -41 
-25 -104 63 -88 
113 -85 15 -120 

-17 -100 16 94 
93 31 52 100 
39 -1 103 34 
-14 28 -8 -80 


94 125 6 -50 
95 24 -97 62 
120 -10 24 13 
120 108 -68 -98 

-25 -6 96 -62 
59 90 -74 -43 
-97 -51 71 -43 
-92 84 -48 -63 

-3 -34 -74 111 
88 -40 52 -26 
-91 70 -82 87 
-107 -113 47 36 

23 -127 -118 -29 
87 -62 -24 93 
9 76 108 -95 
-116 -60 -34 -110 

-68 -71 83 -71 
16 10 -101 -40 
-3 61 33 -39 
-102 110 25 117 

-13 -5 -44 -14 
38 104 46 -84 
3 -87 39 -8 
-85 38 107 73 

-44 -40 -36 -93 
17 92 -2 -14 
108 -22 114 -69 
68 -22 119 111 

36 61 -114 17 
-77 -40 121 1 
84 3 101 -42 
102 26 35 19 

12 -48 49 -62 
12 80 -58 74 
-86 -77 -28 95 
84 91 -109 117 

14 -9 -36 -70 
24 19 -121 -86 
46 72 -73 18 
78 67 -50 5 

-56 -121 -13 -47 
-61 -63 -57 92 
-45 79 -42 -47 
103 -17 101 -71 

50 -61 90 -104 
45 122 -6 49 
59 -27 -99 53 
-108 -34 -70 29 

118 -53 -123 -5 
92 105 -8 -39 
81 -70 100 -90 
22 -111 124 -79 

-36 14 110 42 
114 106 -28 -56 
13 -6 -63 113 
16 49 -114 117 

-108 -63 105 -19 
-44 -86 44 -58 
125 -56 38 -40 
18 -18 62 -58 

30 62 39 76 
103 -1 -56 -87 
-25 -127 103 31 
-62 -57 33 -44 

-102 -59 -45 -45 
91 -110 4 85 
-91 -52 -107 -103 
120 49 -79 -92 

28 -103 -62 5 
43 126 40 90 
86 71 -23 107 
-86 -42 -91 112 

44 -82 36 77 
-117 23 88 19 
104 85 -31 -97 
57 -20 1 70 

-120 20 -25 86 
123 12 -8 -1 
-59 59 47 -75 
-89 103 -117 22 

42 -121 97 117 
81 -36 -69 -124 
-115 68 -26 84 
13 -51 -77 -49 

49 -44 -108 106 
4 19 120 93 
66 -8 -102 -56 
-24 -84 -66 93 

-13 -84 -63 -50 
-42 -5 83 -45 
-39 -43 -43 25 
94 90 120 50 

126 26 -11 -40 
124 -111 31 26 
-11 -113 96 -33 
-3 -45 0 96 

59 94 94 -47 
-36 -2 92 16 
-108 80 -93 64 
-5 -69 -123 -73 

61 -94 -43 -70 
-78 -39 109 -109 
13 21 -117 104 
82 -59 -118 -117 

-69 59 125 -109 
-82 87 -100 49 
55 -27 -43 -39 
10 -78 -52 -35 

60 37 81 4 
-109 -50 -43 -60 
-65 37 31 -122 
-115 -73 -85 -124 

0 -77 110 -13 
-43 35 -67 51 
55 78 -41 -35 
-40 63 3 18 

-124 -41 55 -55 
-82 -73 -43 -67 
65 -120 -95 85 
-91 78 52 -34 

-16 125 -34 -55 
30 73 53 53 
-124 109 89 -20 
-101 -61 55 -41 

49 -119 72 -97 
74 101 -20 -57 
13 23 92 9 
-61 110 52 31 


54 -121 -7 -35 
-82 59 -64 -94 
98 52 -82 12 
12 -45 99 127 

115 -32 -111 -103 
-99 58 54 -39 
-3 8 74 81 
-84 17 73 -77 

-96 22 -53 -21 
12 -78 -53 -35 
-67 -75 -25 -9 
121 60 -53 30 

-120 62 77 14 
-51 -82 84 123 
-28 123 -73 -13 
38 107 113 -25 

32 110 -90 -127 
-3 31 77 25 
-61 -99 97 41 
-61 -45 51 39 

29 -94 -7 -68 
102 -41 -127 -15 
33 -77 98 -71 
126 -114 7 -106 

-105 52 6 -29 
-40 75 112 26 
-66 -84 125 84 
-16 -51 -67 22 

-110 84 61 -53 
-125 39 -80 -106 
55 -44 -85 -24 
-8 -128 23 63 

-8 -14 72 98 
96 112 99 -76 
53 95 98 89 
-46 61 -93 64 

88 -39 43 -46 
73 -41 92 -43 
19 -4 37 97 
-76 -27 -3 -85 

107 16 -18 -46 
-122 31 -46 29 
40 -69 25 -53 
-71 -62 87 -126 

33 96 -22 -7 
-37 -112 48 -40 
-114 -92 -102 82 
103 -57 66 76 

109 -19 -37 -20 
55 -24 -80 47 
-29 -32 -100 -42 
40 -28 93 6 

11 -44 -35 -54 
-20 -127 3 -65 
51 -48 38 45 
31 -29 -18 -101 

83 53 1 -34 
-72 -11 -111 6 
71 -28 78 -111 
104 23 -77 121 

-101 10 96 79 
-57 54 -71 61 
-78 69 -102 23 
-76 87 124 64 

-76 -60 45 -50 
99 104 90 29 
18 -52 -79 -83 
78 -122 10 -38 

41 15 23 109 
-35 7 -65 -102 
-73 23 5 -40 
-121 -10 12 101 

14 -90 -58 -17 
126 -17 88 29 
50 -85 -110 76 
-50 -13 -90 -58 

-33 46 -64 -7 
-38 26 -103 -126 
14 -83 -8 -123 
78 7 92 -71 

97 -37 54 -14 
108 -50 45 54 
84 47 37 -22 
70 -91 -52 59 

32 25 -93 65 
108 66 3 -96 
109 -65 121 125 
-111 -47 -66 87 

-114 -34 -23 -17 
43 120 -101 -85 
18 50 46 -14 
-92 96 -112 -114 

-29 -71 -13 -25 
90 -20 65 -3 
92 105 -59 -72 
-102 -57 65 58 

-42 -72 44 -36 
-8 64 -32 -111 
-75 87 -71 -42 
-51 56 14 -32 

-92 -13 28 -91 
-123 48 -87 4 
-18 3 64 -127 
-5 -11 74 62 

76 -1 71 108 
-61 -42 -44 43 
59 59 11 -10 
42 -124 -36 -40 

47 -110 57 52 
67 83 120 -93 
-7 -106 -26 -48 
93 115 -82 31 

-28 122 60 83 
18 29 -100 8 
-62 -5 -38 -51 
-72 70 54 -66 

86 -43 29 33 
56 93 106 -50 
20 -126 8 -54 
7 81 124 -16 

26 -51 -27 -56 
36 34 18 -36 
-14 -91 33 85 
-72 -87 78 -23 

-59 -63 107 109 
-92 -37 35 -34 
-106 -94 -97 4 
107 -30 -66 -95 


-80 -7 -30 -104 
-105 10 83 -99 
13 -114 -40 -89 
68 106 -73 98 

44 -16 7 52 
-8 -73 124 -73 
-113 47 -118 -11 
-36 -66 90 -127 

49 -101 22 -89 
-8 72 80 20 
126 -85 -2 57 
115 70 36 -68 

32 -124 8 -33 
-107 100 -15 99 
101 -15 117 -18 
71 58 -89 -12 

105 22 79 114 
117 -4 -108 -64 
-16 56 4 83 
8 -47 96 -41 

-34 -32 -7 92 
-102 43 109 -95 
67 61 -77 3 
-98 11 69 -24 

87 -75 109 -89 
-79 -35 -14 125 
122 70 26 65 
43 67 21 76 

29 85 -59 -120 
33 -68 123 -90 
-79 75 -113 113 
49 -95 -71 -18 

122 -40 -64 -88 
75 27 96 -43 
115 57 -116 125 
-50 77 -34 49 

-49 36 9 44 
-24 85 -4 51 
77 108 40 44 
119 7 37 -125 

95 14 -61 -26 
38 -90 58 -103 
-74 -34 -123 5 
91 -77 121 -77 

45 -3 85 41 
90 15 108 12 
77 73 40 124 
0 80 -46 -113 

-121 97 -81 109 
58 -65 78 -54 
-70 88 -80 -102 
125 31 82 21 

-19 68 97 106 
-25 -53 -84 37 
-123 87 9 58 
-29 -24 -114 1 

17 36 70 10 
11 51 63 6 
85 21 -61 0 
24 93 -8 90 

51 26 -55 -10 
-76 57 10 66 
8 112 108 30 
32 -10 -67 -35 

85 126 -91 107 
-115 54 -116 100 
-71 36 122 3 
42 -114 100 -109 

-53 -99 -87 1 
69 -92 50 11 
-33 95 -16 -88 
-13 29 -21 -52 

-19 -118 -91 -115 
14 87 104 75 
-5 -55 -25 -39 
25 -13 -96 124 

-93 -121 -3 -115 
55 90 64 -72 
38 -78 96 -38 
67 21 124 120 

44 -22 -100 -80 
124 -50 -22 -31 
-66 -82 47 0 
126 -80 -84 91 

-69 118 -93 -29 
-117 -38 19 -8 
-16 104 -33 34 
22 -118 -42 125 

82 74 -45 -49 
0 -33 34 90 
-44 44 85 92 
-44 15 -63 96 

62 -102 125 -22 
93 -29 6 -47 
72 88 44 9 
-43 50 60 109 

29 -85 41 22 
-108 23 -74 35 
-91 -24 78 9 
-21 -91 -31 56 

-104 24 -110 -124 
-96 -8 -59 33 
47 100 -21 -78 
-118 58 119 28 

97 -98 -65 101 
55 -33 -22 29 
111 120 -41 -18 
-63 -7 99 -86 

101 81 -108 65 
-122 -54 -40 55 
-42 -101 -103 5 
98 -36 -53 -111 

21 43 -88 -73 
56 126 23 -49 
-63 77 -42 -112 
73 -68 100 91 

57 -124 27 -70 
-13 53 125 -69 
-9 9 -37 -13 
-76 66 -61 47 

26 17 -95 43 
-87 102 31 -46 
-55 -61 42 -55 
-64 52 -61 -78 

45 16 94 27 
-80 -76 -1 -50 
-33 86 -109 6 
-17 54 77 -119 


31 -38 -31 -61 
99 55 121 -54 
112 52 -14 10 
-99 -75 -96 -47 

84 69 -115 83 
29 -28 -112 -107 
-89 -36 100 110 
-119 -82 101 122 

42 -72 -118 97 
-114 115 -79 -32 
-40 -94 117 -27 
3 -52 42 -20 

114 53 -123 122 
-50 8 42 -72 
-46 120 -66 -26 
-42 54 -47 82 

88 27 91 55 
-104 -114 104 82 
100 113 -101 -25 
61 -30 -59 -48 

104 -105 -113 -67 
-108 20 -111 -15 
117 -79 29 55 
-30 71 -50 -126 

-44 111 111 -86 
40 61 64 105 
36 121 -105 -95 
113 -113 100 58 

26 104 37 87 
12 -85 -69 75 
9 -41 46 122 
3 23 -113 11 

-120 -7 -105 -19 
14 58 7 -3 
-22 103 -22 95 
43 91 8 -8 

-80 60 126 117 
-97 -67 -44 64 
39 17 39 -103 
76 29 80 20 

68 -72 -72 29 
70 -1 68 -87 
-110 -109 -33 -58 
97 99 -36 97 

-96 105 -52 -19 
-77 -105 32 82 
95 70 88 13 
-70 -101 -76 55 

43 71 -124 -2 
11 14 13 -52 
-12 125 -109 -120 
20 41 -112 -77 

-4 39 38 -71 
-32 66 -116 20 
-25 -97 42 38 
79 46 101 -43 

-88 124 -68 -126 
107 -86 3 103 
-127 -32 -24 110 
-39 116 45 2 

56 1 25 116 
-119 18 -51 52 
-40 -88 124 -47 
5 10 -115 -117 

-57 48 -111 -118 
27 15 19 -96 
8 -104 53 84 
-43 -85 59 105 

62 -20 -40 -73 
-33 -72 0 43 
-42 96 -115 -6 
41 -34 -95 59 

56 113 -51 -62 
96 -10 -49 -93 
-11 -20 -85 88 
-24 111 -9 -4 

-5 -123 -21 -59 
-60 58 -26 99 
72 -58 -45 -102 
-74 -49 -7 -37 

-115 104 -110 78 
28 117 10 -21 
-45 -87 -100 -7 
-119 10 1 9 

41 117 -18 30 
-30 -112 117 56 
-24 -102 -60 72 
-106 32 -97 34 

-40 106 5 -44 
68 107 92 -8 
-59 111 -14 49 
28 20 102 48 

107 55 -62 116 
39 -92 -75 61 
71 68 -37 -66 
62 -69 -25 35 

39 -19 -90 0 
99 -73 -23 90 
-111 -66 15 -97 
89 87 -121 -57 

-6 126 -122 35 
28 -17 115 78 
-7 -112 -12 110 
-47 22 88 63 

-33 16 -47 -81 
-104 47 -102 -113 
90 114 -93 -103 
-69 68 -68 54 

-39 -73 -43 30 
120 -44 95 12 
-89 110 47 -89 
23 -5 81 -30 

63 49 87 -122 
-84 -22 52 51 
-115 -81 -119 106 
59 -18 -43 -106 

-115 -62 -85 37 
-6 -81 -2 42 
38 -73 86 -32 
-1 24 -97 22 

-83 0 17 -15 
82 62 70 -125 
-52 -54 -3 100 
-22 36 -99 34 

-45 -19 91 -77 
44 120 -64 -45 
-2 -13 -17 -20 
33 94 -33 -12 


-78 -87 6 45 
-60 24 117 63 
-63 48 70 -49 
-88 99 -15 30 

-121 57 64 -16 
59 -35 -28 30 
49 -24 -111 92 
-98 97 -50 -110 

60 -16 -73 1 
53 79 103 -74 
-33 -52 -111 -113 
-64 -29 71 -74 

-31 69 -13 33 
-61 -112 116 -103 
84 72 0 30 
-96 -121 55 -91 

6 -48 21 -41 
-15 -82 37 -111 
86 55 38 -13 
-92 30 -44 -7 

-97 103 69 -92 
37 42 72 -56 
24 74 -116 17 
-100 -34 80 120 

25 -59 -11 64 
-97 -38 -97 36 
-46 -43 -68 124 
73 -87 35 -26 

-56 3 -26 -112 
-18 6 19 47 
-3 -128 -41 -115 
-103 -60 -28 120 

-88 -13 30 -44 
114 -31 40 -107 
-39 57 112 65 
75 -21 -125 93 

78 60 -3 92 
103 -100 96 -87 
-70 68 28 -24 
-34 -122 -58 18 

-63 10 70 48 
-110 50 76 -78 
106 42 84 19 
-43 -84 31 -87 

-14 30 -121 -111 
69 -6 -19 -16 
-17 94 -119 83 
-16 61 69 17 

47 27 -7 -32 
-10 -78 110 -85 
-61 118 65 -99 
78 -64 7 20 

-26 -65 31 96 
-15 -125 -69 74 
-92 0 -13 16 
-8 -6 -99 93 

24 3 -12 67 
-34 50 -79 110 
123 -85 85 67 
28 -59 -59 -54 

88 7 -121 -44 
116 15 -114 48 
77 105 -16 18 
-111 23 -59 75 

-64 -4 -113 -124 
71 -14 -7 -30 
25 -84 -38 -8 
-101 87 115 62 

27 3 -103 -96 
37 106 73 126 
69 56 67 95 
57 104 29 100 

47 73 -3 122 
-29 -53 -39 17 
86 -86 -40 48 
119 73 97 14 

105 -37 -65 -38 
79 -21 14 125 
-112 -85 -13 116 
-57 15 -83 98 

1 -92 -75 13 
-125 9 -80 -36 
39 -70 48 -48 
-124 78 84 -73 

57 111 107 -68 
-109 13 -82 -27 
103 -76 -125 -85 
-39 118 -95 90 

-80 105 -99 35 
-42 63 36 -122 
23 -76 105 -114 
-127 -111 -57 -69 

-114 89 -63 72 
100 14 20 -9 
49 -15 -35 119 
-91 2 89 -25 

59 90 87 124 
47 46 -85 -18 
39 -25 7 31 
-108 69 -32 114 

-12 69 -61 -95 
-58 -31 -102 -26 
24 20 17 -51 
52 22 -67 99 

-37 24 110 70 
110 89 -118 -82 
110 105 97 40 
6 77 -89 57 

10 -112 -82 121 
54 4 -29 28 
33 -122 -88 122 
-83 30 112 14 

-92 -128 -78 90 
-122 -110 6 7 
9 113 -30 -95 
-62 106 83 9 

-2 61 3 -92 
-119 42 -76 -81 
-78 -97 -88 6 
84 2 -60 56 

52 117 -92 -106 
12 -121 -107 105 
-74 -40 49 -54 
-99 -10 18 -88 

-11 -95 -82 -110 
118 10 120 109 
-22 -98 -49 94 
-26 30 -36 -125 


81 -2 -38 -106 
-111 93 -47 -33 
-34 -33 95 124 
-92 -55 103 96 

122 77 68 110 
6 -39 -113 -127 
113 110 83 -47 
-121 23 -86 54 

-67 -124 110 91 
18 -85 20 -37 
-58 -7 40 62 
-51 -87 26 -98 

-70 96 -89 -59 
-122 97 -78 8 
-107 92 -10 -106 
-21 -95 102 39 

-44 23 126 -24 
22 87 117 -30 
73 94 -14 113 
-115 127 92 -19 

80 88 120 -52 
78 105 40 -36 
16 -96 -103 106 
71 27 -93 -13 

-13 -68 39 -87 
-84 -96 -5 12 
-4 -70 20 36 
85 -89 75 113 

110 52 -70 -63 
-93 37 -112 108 
89 24 -56 -54 
-106 7 -24 -97 

69 -73 74 -69 
48 -44 108 -56 
30 -118 -70 114 
-26 81 126 80 

-37 1 78 85 
117 -30 18 96 
25 91 -18 -2 
72 -38 15 -87 

-26 -48 -1 82 
-103 -88 42 -30 
64 33 22 -34 
50 -92 -22 -96 

-126 9 76 -93 
-39 110 40 -72 
-63 -64 -86 34 
-3 19 83 101 

-39 21 68 34 
-36 41 -11 -3 
21 -97 -13 -25 
-102 41 101 103 

-40 -107 97 -78 
53 -88 89 89 
-112 -74 -50 -46 
81 -68 -121 -36 

56 9 -39 -49 
-77 83 -5 65 
16 124 -82 87 
33 -94 29 -32 

33 -80 -2 87 
-89 -35 -120 -35 
108 59 30 -70 
-91 94 -15 12 

12 -55 95 -33 
-125 -65 47 72 
-112 52 117 -55 
26 38 -28 106 

-19 42 0 -88 
-128 -67 -37 -34 
47 79 5 55 
0 109 113 11 

72 65 -30 48 
103 1 -125 2 
-51 69 -7 111 
-55 -43 21 71 

39 43 -43 3 
-117 -51 7 40 
71 -30 116 -17 
108 106 -49 -87 

47 59 89 -95 
101 -100 -127 -86 
-53 53 83 57 
81 34 49 -120 

-11 47 -24 -16 
-97 114 -101 61 
83 52 -113 54 
-20 73 89 107 

110 -98 -70 96 
-105 -4 59 97 
56 123 58 39 
-125 -86 51 -27 

79 -85 -77 19 
26 -48 -30 84 
-7 51 77 34 
110 -86 111 -71 

-126 -32 -97 -125 
54 55 -67 -81 
-24 47 -100 98 
-22 9 -29 76 

89 22 -120 22 
-43 -84 72 -29 
-12 -25 -60 -112 
-29 -88 -81 -19 

74 48 -111 1 
-23 -13 4 -84 
53 -105 -24 124 
62 -46 33 -75 

116 111 97 -8 
-67 20 120 -9 
-111 -11 -47 -115 
60 -111 -110 29 

-41 125 -119 118 
-53 49 -106 -126 
5 74 33 -92 
77 -109 24 -119 

-120 -103 -120 -99 
34 84 106 83 
22 -126 -100 -97 
41 76 125 -56 

-78 37 -124 54 
85 -17 -107 91 
28 40 25 -5 
-24 -11 -23 36 

-74 -108 -92 38 
-80 74 -44 -59 
-35 -22 43 23 
38 29 -5 106 


56 -48 -5 -119 
40 47 91 57 
76 -62 59 114 
64 80 79 -78 

14 -70 4 52 
107 103 -69 114 
60 -38 -62 86 
-37 -95 62 -90 

-108 -15 -110 121 
-109 31 89 110 
98 88 -17 83 
-119 23 -84 84 

-113 46 -85 5 
-121 -2 -86 -122 
-122 -47 85 19 
-3 -66 120 76 

-125 -70 28 42 
-59 -123 -27 26 
124 25 43 -120 
-12 53 3 -46 

-67 38 -2 -8 
-38 -11 20 -61 
-61 27 -62 20 
14 -12 -115 -13 

-104 74 -81 -73 
-4 82 90 72 
5 -46 35 77 
-106 -14 -65 5 

65 -55 -88 -36 
-100 -73 -18 82 
-19 -71 -58 -26 
62 -57 49 -55 

-39 -99 -111 -100 
86 -27 24 -58 
50 75 -65 -111 
99 -111 -119 35 

-110 -100 -62 -37 
-84 30 -125 -99 
-3 35 70 92 
-43 -28 26 59 

99 -24 3 14 
-21 -111 -26 57 
-88 112 90 99 
-108 -1 -45 11 

-46 115 -5 61 
-42 -80 -71 -118 
-93 -76 18 -127 
25 81 -29 99 

111 -23 84 60 
46 -127 -71 33 
95 -2 -34 -49 
-1 18 127 -68 

64 -88 -67 74 
29 -34 73 -47 
-57 -68 58 119 
-85 75 31 90 

-27 97 -96 -112 
107 -32 44 117 
-65 -78 -53 42 
41 37 -7 22 

21 63 -9 -74 
-126 11 -88 -66 
-67 82 -61 79 
-78 96 101 73 

-88 21 -16 50 
-9 5 -124 95 
-86 123 77 -45 
-77 3 86 -74 

-83 23 -47 92 
60 -104 -27 15 
44 18 82 -115 
-91 -52 6 -66 

-36 44 -1 63 
63 -125 30 108 
-124 123 59 -37 
118 86 98 -88 

74 -43 122 30 
90 -82 70 123 
9 86 -7 29 
-40 -34 62 76 

59 -78 119 -44 
90 -24 -65 0 
-90 -79 92 48 
-12 32 -56 94 

-74 24 30 86 
-119 93 113 -101 
-24 -72 40 30 
5 73 12 -80 

-120 -59 15 -6 
-12 101 -40 -35 
66 94 86 -77 
121 -62 49 2 

83 -121 55 42 
1 81 86 91 
110 101 -111 -59 
-100 62 -84 69 

-38 -97 65 -14 
-95 2 -105 56 
-35 22 102 91 
119 -122 120 116 

32 -98 -50 71 
-84 -7 123 44 
75 -6 97 -46 
-79 48 -109 118 

-94 94 69 -42 
13 -64 122 -16 
89 -68 -12 -10 
77 -57 -47 52 

84 -52 -38 100 
-7 41 68 110 
121 -51 -105 -18 
36 110 -101 -49 

61 75 -45 48 
51 -72 68 -1 
108 66 0 -68 
-59 -126 112 24 

-105 -35 25 16 
-120 -53 -56 -24 
-50 96 -6 24 
-57 -7 -97 73 

-9 9 102 104 
-8 70 -88 70 
118 -113 -52 -90 
66 -121 -75 94 

-125 21 113 -8 
-58 48 106 -101 
22 127 -22 67 
-36 -90 4 -24 


-22 -109 -102 -1 
-127 89 54 105 
79 -64 -103 105 
-22 -126 -46 -14 

-74 75 -18 -17 
14 -36 -115 40 
-43 -99 -55 -42 
127 73 -86 -51 

94 -90 -17 -79 
11 65 8 101 
38 -85 -91 -60 
-65 41 10 -7 

-110 -104 -20 -53 
23 -69 -76 -100 
91 21 -55 -5 
-78 48 -106 -54 

-12 110 14 -21 
-128 71 -60 8 
63 16 -82 -29 
-35 61 -24 -69 

113 -32 46 -38 
92 -63 67 10 
106 -108 -116 98 
-113 45 7 -57 

-24 103 -53 20 
124 -43 -1 -75 
-20 47 112 -100 
-69 -100 -97 86 

-6 -34 60 111 
-69 -6 -49 34 
97 -33 -33 -121 
97 56 -66 82 

64 -20 -79 -32 
34 62 92 105 
-18 7 -106 105 
-46 20 -100 -52 

-120 -6 52 121 
31 -118 106 31 
-4 -96 -4 -19 
113 105 41 -123 

31 97 -59 40 
-106 -31 95 -123 
69 -36 32 67 
99 19 -25 -9 

-123 -61 48 31 
51 -20 -27 -109 
-39 -43 23 18 
81 58 -11 80 

-91 16 -79 -90 
-104 10 -47 -20 
55 108 -6 90 
-81 -99 -10 -21 

-59 -44 -74 49 
16 -103 -45 64 
104 -66 -100 12 
-63 23 -124 126 

-94 -9 27 -44 
-51 21 75 41 
48 94 -118 99 
-128 95 -85 -59 

78 87 11 -124 
106 -50 49 60 
-26 5 -83 -122 
107 -37 17 -103 

-76 -67 -9 17 
-80 -106 120 -110 
-109 93 103 118 
-102 66 39 -56 

118 45 55 17 
18 -64 -88 77 
96 -95 -52 86 
27 108 23 -30 

123 -93 -85 43 
-16 36 114 -60 
-124 94 -2 -106 
-69 -11 -18 62 

-5 -8 -111 82 
28 -18 39 114 
-15 63 64 -103 
125 87 -42 -92 

-44 41 94 39 
23 -110 41 6 
114 -71 122 -112 
-74 123 123 -67 

-121 -52 -53 -15 
-49 7 40 -59 
-113 -90 -41 5 
-76 84 -66 101 

-95 73 12 19 
31 27 -125 32 
-117 -73 -94 10 
-125 63 39 -107 

88 -85 -95 108 
4 -74 16 -2 
39 120 -89 -77 
58 -50 109 84 

-59 106 112 -114 
57 -47 -65 -114 
0 -54 61 42 
70 -93 22 -63 

119 -87 12 113 
-72 -17 71 -119 
88 14 44 73 
37 -108 21 108 

-77 67 124 -90 
22 -64 -2 -111 
-81 -20 -39 68 
-94 -34 -3 124 

79 94 103 -96 
-121 -125 -71 -14 
102 -81 86 122 
6 100 -67 5 

-64 41 -2 81 
78 -5 58 -31 
-76 -48 -114 101 
-12 -66 76 61 

9 110 -106 22 
73 -7 109 25 
-19 2 -85 21 
1 9 -38 -105 

76 57 114 26 
112 -92 35 15 
-115 -78 94 -94 
37 16 14 73 

41 -39 -9 -66 
73 79 41 70 
4 -105 107 22 
-23 -62 -64 35 


-128 -8 -11 -82 
-83 -73 -102 57 
-19 23 -64 10 
-119 37 50 78 

-97 -108 94 54 
63 -40 -29 19 
21 68 46 -56 
-124 119 95 -9 

38 -24 -111 -52 
79 -69 75 -50 
-67 -46 -20 -126 
111 11 115 -31 

37 123 51 123 
94 -108 -58 52 
100 -81 73 91 
-43 -93 -107 33 

-73 58 40 119 
6 65 109 -97 
63 -105 -57 -105 
-18 28 -105 -57 

-61 -85 109 52 
72 -100 -20 90 
-35 31 -53 -109 
112 13 -4 -97 

72 28 120 6 
-28 62 80 15 
95 119 109 -109 
110 36 -27 79 

99 60 80 -15 
-75 -57 -92 25 
111 57 -30 25 
-122 47 -19 103 

-23 27 76 -89 
-54 -26 -40 122 
115 54 42 33 
-10 -38 41 -125 

21 -87 -119 -84 
123 19 107 -46 
-6 -40 -111 -26 
-53 -17 103 -48 

64 118 101 -18 
34 114 11 101 
90 -124 -5 10 
-21 110 -42 -47 

90 76 121 -44 
14 -38 16 29 
-95 -124 -25 75 
-121 -59 57 83 

-18 -121 -102 31 
-105 -12 -81 -5 
-87 45 -90 111 
30 -47 17 112 

-33 -86 -36 74 
49 34 -80 117 
-106 56 75 -113 
-128 -105 97 60 

-23 -108 -100 58 
-48 48 48 -70 
18 -9 -124 -48 
-120 67 -70 11 

53 -22 -90 71 
62 94 87 20 
22 -82 -120 62 
-91 -88 -104 33 

103 29 62 15 
41 124 -61 -56 
-5 35 -91 -6 
-106 16 47 -81 

-122 10 64 74 
-5 41 96 -11 
89 -110 85 46 
8 13 25 -112 

-94 29 -114 99 
-104 19 75 -2 
16 40 -45 85 
-35 -83 108 56 

-86 -100 30 -58 
93 13 1 55 
11 108 -2 92 
48 1 -110 -15 

-107 125 -106 23 
-123 -49 44 -57 
-19 -68 118 49 
96 -82 101 -79 

46 56 32 30 
62 95 -116 109 
48 -29 -11 92 
70 1 -97 21 

-122 102 -44 -83 
-34 26 24 72 
15 -1 -112 -66 
103 16 -91 -124 

-105 56 51 3 
-47 39 -90 79 
-4 46 -90 101 
55 -57 54 -38 

-48 -52 106 72 
43 -110 122 -25 
-108 118 -26 80 
-93 -41 -73 63 

-72 -101 96 40 
74 -23 -21 -74 
-105 -45 72 -124 
67 22 -14 -25 

80 115 -109 -82 
-8 26 118 -69 
111 56 19 -107 
44 63 57 -25 

-80 15 -4 -49 
10 63 40 -45 
104 62 -25 65 
102 61 127 3 

21 -55 -126 -38 
-89 72 83 -116 
-30 -110 108 -45 
-59 -2 -112 95 

-91 -73 113 35 
-44 -9 -14 25 
-49 -41 10 -75 
-40 -35 125 -64 

102 -120 -87 118 
85 -113 92 123 
112 8 -92 118 
-92 -5 18 -39 

-22 91 -15 22 
-110 63 25 -90 
-27 86 83 124 
20 -71 98 27 


-15 2 -25 -52 
79 -51 -72 0 
46 -61 123 38 
-6 -104 118 76 

82 19 -87 -12 
-54 55 -52 -120 
118 46 -28 127 
-88 -33 61 102 

101 118 -78 -72 
-46 43 54 -126 
47 -91 101 125 
118 15 38 -20 

-57 20 68 57 
-40 102 -127 125 
21 -49 82 86 
121 -104 47 -92 

-43 -118 -17 94 
38 -47 -33 -3 
-40 -47 -83 -54 
10 -50 117 50 

90 95 74 -61 
-1 22 18 29 
35 -74 -86 -81 
49 59 93 39 

-103 31 -18 -98 
57 115 -124 86 
-24 31 -18 -74 
3 114 125 -29 

124 58 50 76 
-21 -87 -88 85 
-17 65 -88 65 
68 116 3 48 

-118 -85 71 -84 
82 -76 -27 -91 
63 -34 -16 -70 
62 -19 31 -18 

-91 -21 87 12 
88 -73 -72 -107 
-112 5 -75 0 
-29 5 -14 47 

41 -41 -99 -71 
91 65 29 -6 
118 66 -32 -4 
-3 49 -14 -10 

56 48 14 -27 
61 -19 116 -54 
9 -102 -57 49 
-104 -94 20 62 

113 -108 48 -22 
65 -90 -95 31 
-98 -18 97 -60 
-116 113 -34 75 

-96 -37 -29 -92 
114 107 94 112 
-101 47 5 -89 
122 7 -119 -106 

11 -16 101 76 
-52 62 -37 98 
-106 -19 -103 125 
-9 -4 -12 -3 

47 -86 -39 -67 
-82 62 120 105 
68 -13 48 -100 
-102 -37 -58 87 

53 8 -21 19 
97 63 78 -26 
-104 30 18 110 
-14 127 -69 -67 

15 87 27 -3 
-124 35 -48 91 
-78 -115 76 -61 
80 0 57 70 

65 -12 -11 -125 
-125 -5 63 -106 
63 84 117 91 
5 122 76 76 

-65 22 13 52 
54 -33 115 79 
51 105 -9 120 
67 7 -83 -94 

-96 23 3 10 
-27 -123 65 16 
101 104 96 83 
-58 -113 -94 -6 

-56 31 24 26 
-120 -48 -69 112 
98 95 22 43 
-91 -115 28 32 

13 -104 95 57 
124 51 -17 -104 
-51 119 127 -27 
65 41 -92 76 

-62 -65 -100 -16 
-27 -106 -69 -63 
59 -88 -89 96 
18 11 83 -8 

-21 -76 -36 -126 
-33 -62 38 -120 
6 46 125 79 
-26 30 -4 -59 

69 -118 -13 -31 
16 -79 45 126 
35 33 -113 -36 
59 92 -110 5 

-123 -8 76 100 
-120 94 2 30 
53 -95 -48 -14 
-45 64 -48 -122 

-48 117 103 -74 
119 80 -10 44 
-93 -54 -113 -61 
-112 -65 -52 119 

-52 5 8 -15 
14 57 70 -1 
-82 56 42 -68 
78 -76 -121 -8 

115 -28 44 -27 
112 72 -64 -51 
40 27 -120 42 
110 2 121 -118 

24 22 53 -33 
-38 27 110 78 
-30 75 44 23 
-77 -100 -59 91 

-119 -15 27 -71 
70 89 25 -90 
5 -69 -13 -24 
-125 8 109 -119 


-31 -67 -95 70 
34 14 -71 -105 
-10 96 118 -5 
9 16 80 -95 

-113 -53 -86 79 
6 -124 -56 -111 
33 -52 -85 -61 
-37 33 -10 5 

86 105 -37 17 
-125 111 54 -121 
-54 -102 -45 81 
-20 -8 -9 -11 

84 126 -115 50 
-100 -126 110 26 
-111 -64 -98 -34 
85 -55 -11 -82 

78 11 75 72 
-8 10 11 -107 
-87 -89 -115 3 
37 -56 -28 26 

31 10 -9 -78 
38 49 -124 19 
-114 -73 -74 32 
96 -42 -60 -99 

42 98 -43 108 
48 -111 -59 53 
108 122 79 -3 
104 -17 -2 -99 

-44 42 -68 36 
-16 75 113 -35 
-90 -54 -110 126 
-20 -85 -106 -35 

100 -108 -118 90 
35 126 -101 66 
-98 -59 119 46 
13 123 -20 0 

-79 -78 -94 115 
51 -107 -18 -37 
-27 7 87 -48 
-33 -9 111 119 

104 19 75 45 
49 -79 69 -122 
89 -33 87 -65 
-32 -53 82 -5 

59 -59 -125 -102 
-22 35 -3 93 
43 -68 -80 58 
108 84 -101 126 

126 -39 60 -14 
22 44 88 -89 
60 -89 17 -102 
-100 125 -29 -109 

-51 32 -69 66 
101 20 39 -49 
-112 5 -28 -36 
107 -120 -111 -81 

-85 -56 11 88 
-97 -44 12 25 
49 77 -29 -95 
-47 97 -5 -26 

121 37 -81 -48 
42 37 -69 55 
30 -109 83 79 
71 118 -78 112 

48 58 -35 57 
59 -66 -15 71 
-102 -76 13 -120 
-26 -114 -24 -44 

-121 -47 97 -85 
37 78 99 119 
58 71 37 -75 
-25 -75 95 -44 

-20 122 6 -1 
69 101 -34 75 
66 -114 3 120 
81 102 18 84 

-21 -83 -110 120 
-34 90 35 63 
-11 78 -24 -117 
104 108 77 -71 

-125 39 21 -101 
100 38 -56 45 
-67 -119 -119 -37 
107 -2 25 95 

-8 1 -118 59 
-57 -102 83 -34 
-22 35 -20 8 
-102 104 -50 -73 

19 52 -63 69 
126 101 -66 -112 
-9 126 -121 -43 
-78 113 32 -69 

-49 85 -30 -68 
59 72 -79 39 
-3 39 -87 23 
-74 22 -63 -66 

-107 -69 36 109 
-78 -66 -70 38 
118 -85 122 -83 
24 117 59 23 

9 -89 -99 -121 
-102 107 11 108 
91 -16 115 -126 
77 61 -87 107 

-122 -50 -15 -100 
78 -79 101 12 
-66 -90 68 -77 
-107 -52 -90 21 

-13 57 -92 83 
-83 -39 112 -67 
1 -96 90 -49 
107 -92 28 111 

-53 56 47 41 
26 93 -70 -32 
-52 -78 119 -106 
95 -61 -62 -112 

-88 115 22 84 
119 -85 -67 115 
-112 53 50 51 
-14 -1 61 127 

79 63 22 32 
69 -12 72 -119 
32 -69 -1 119 
-48 36 -3 -88 

51 -85 34 -84 
-44 115 -63 16 
-87 -95 -20 96 
-115 -56 24 74 


-117 60 11 74 
126 -75 -114 -123 
50 -12 -3 -28 
118 -61 79 -49 

33 -45 9 -104 
78 -92 19 -63 
-90 48 26 -47 
30 -69 95 -20 

-102 43 -12 85 
53 -37 -36 -19 
96 75 -54 -84 
109 37 67 -14 

82 -74 -116 115 
45 -7 -38 10 
36 -66 33 2 
106 99 48 -123 

-71 -22 -38 -63 
38 -105 55 41 
-121 102 80 -123 
107 88 90 -89 

50 101 68 -117 
-115 78 77 106 
-95 -57 -8 67 
-87 79 12 19 

81 -13 -44 122 
-20 104 -50 103 
39 -94 102 -23 
37 60 10 107 

125 69 57 -18 
86 -21 -68 106 
57 -105 9 -121 
71 -27 -17 75 

-40 87 -29 -52 
-3 71 41 -13 
33 -26 -8 37 
-112 -9 95 -88 

36 -72 15 -58 
-117 -71 19 -89 
87 16 -108 52 
39 55 105 -5 

-123 39 18 -45 
-21 9 -75 79 
12 -30 71 34 
84 64 -61 -83 

-35 -21 -1 40 
53 73 40 34 
-119 7 27 -121 
80 -19 82 57 

68 125 12 49 
-89 15 -100 19 
-29 -109 48 85 
125 122 104 -94 

-59 107 54 -104 
40 106 -52 39 
-36 -7 -70 -89 
41 109 -66 -9 

-29 109 -83 19 
-62 114 -35 35 
-40 -91 77 96 
-66 -54 21 108 

-40 -29 -51 100 
15 36 112 -46 
-94 87 -122 -27 
72 -95 -33 -61 

42 -65 -83 -80 
-103 97 27 -24 
112 8 -90 15 
83 -17 114 -84 

-60 22 108 0 
9 -30 -104 76 
-117 -50 -86 -12 
31 -106 -82 -65 

19 67 -57 -44 
52 36 90 106 
52 92 40 49 
16 -52 -124 -9 

113 52 -100 -125 
-40 11 -5 -46 
115 3 35 25 
-104 20 29 -95 

-75 -46 69 -27 
-10 107 122 82 
109 -58 104 -93 
-111 -21 -108 80 

-127 -90 -122 16 
82 10 15 67 
9 104 -117 -18 
124 113 -23 59 

-81 14 -8 -63 
95 2 -64 4 
25 107 113 93 
12 117 91 -53 

-107 8 124 -27 
81 -10 101 44 
39 -96 -97 54 
-72 -38 75 -5 

-27 -79 39 13 
66 68 105 93 
-28 -42 -45 18 
93 -1 38 -94 

37 56 -38 -81 
23 -12 -38 76 
79 -24 63 -7 
109 81 80 77 

123 45 29 68 
3 107 -32 -35 
95 72 -102 -119 
-98 -26 -78 -91 

-108 108 -69 18 
-43 -31 -105 12 
106 97 23 -79 
21 109 -42 -108 

-114 -10 107 -126 
-91 -37 -65 77 
-63 -39 -43 -69 
-111 30 -62 -1 

-58 33 34 62 
124 -102 -64 -40 
120 112 -105 -59 
-63 86 -83 -53 

17 112 51 -1 
51 65 92 -92 
-20 55 -119 -76 
-36 -109 64 -53 

-41 -93 68 108 
-9 78 -75 -109 
-99 117 -119 9 
26 52 -58 -24 


-22 24 -29 -122 
9 -39 -19 -4 
42 -16 -67 32 
-96 -125 -114 -6 

113 35 -98 77 
-125 -27 55 81 
75 -32 52 10 
102 -71 -40 -70 

-56 -46 -61 44 
-106 -58 -100 -116 
-117 33 82 73 
83 -111 85 96 

-105 -105 20 67 
-19 -29 -66 -86 
-50 -53 -21 101 
2 25 -78 -100 

76 64 57 83 
125 -110 -68 -118 
91 -29 -48 25 
123 -114 81 -46 

34 -110 36 32 
-74 -95 -24 -94 
-75 82 -69 57 
105 -9 -45 -110 

48 -68 -23 -85 
-119 111 -28 39 
-10 80 -79 80 
14 -122 82 -116 

-19 24 88 89 
-100 36 100 103 
-28 103 61 -77 
-116 -74 84 71 

-22 44 105 105 
41 -96 73 -8 
-93 -93 -7 31 
105 -30 -117 -40 

-93 13 84 23 
-37 107 -79 106 
-3 -7 -9 4 
-31 -21 54 67 

95 19 64 80 
61 -35 -44 21 
-41 -44 -90 70 
30 64 8 120 

64 61 69 125 
4 -106 52 -50 
79 61 -121 54 
0 4 -40 -79 

-81 -11 -64 8 
-88 -22 -81 -87 
45 82 -80 -86 
21 -44 -33 44 

63 -60 75 106 
-98 -23 -4 -125 
-40 70 94 -124 
35 -101 -48 9 

97 35 -1 -80 
-81 -35 -41 111 
-24 -24 -43 3 
-101 -110 71 -101 

64 -79 -28 -15 
95 -105 -39 -88 
-103 20 108 2 
-86 71 36 -89 

8 -88 73 -123 
-29 -57 -4 -43 
16 108 -3 -18 
-61 -9 -118 21 

52 -41 -107 -22 
79 -99 -74 25 
103 -127 5 -43 
-111 -63 -111 19 

30 59 100 27 
-80 -64 8 -103 
20 -25 -112 18 
89 -94 10 68 

32 123 -88 -124 
28 84 -110 98 
-18 -2 -108 -98 
8 -98 6 116 

-72 38 24 106 
121 42 -84 57 
119 -75 57 99 
-63 -93 97 -114 

32 -20 -51 -2 
-76 29 111 -74 
-5 -118 124 -91 
-36 75 -48 -69 

-122 -94 61 62 
-52 -81 117 -71 
3 9 -119 -54 
-122 115 -1 49 

125 104 -75 27 
-34 88 -52 25 
-12 -25 90 47 
-118 -67 9 -50 

29 -30 -86 -56 
53 -45 26 13 
55 -103 -82 -11 
-35 5 -111 -39 

104 125 102 -34 
52 -64 80 -54 
34 11 -25 -111 
-103 -55 -68 -89 

60 63 119 -26 
-55 101 6 32 
-82 -111 -6 95 
-96 44 -69 27 

1 65 2 -54 
-39 72 -39 -83 
-85 -91 24 -3 
-95 -96 -84 -50 

-83 -36 -101 106 
-9 83 119 -21 
-40 100 -54 -54 
-66 -84 41 -45 

-87 108 -98 -19 
40 74 115 91 
32 32 33 -127 
96 -4 -124 -117 

107 -123 -98 99 
36 -104 -52 110 
104 41 9 -47 
-110 -50 85 74 

25 -24 -102 -23 
100 113 -107 -53 
-97 -40 112 -25 
0 -16 -32 -93 


-51 -26 42 -125 
-106 -53 99 -96 
9 -91 -7 124 
-71 -27 109 54 

-16 -16 -43 -34 
-9 -7 -35 -55 
6 15 -105 -23 
95 81 -120 -39 

125 -111 33 -81 
48 -120 -9 117 
-123 -20 -26 53 
-47 32 -79 57 

16 -64 67 92 
-103 -32 64 -51 
7 49 -7 -68 
-86 -101 116 -78 

84 -38 21 126 
-29 81 -113 -13 
-37 23 100 82 
116 96 -3 -20 

-20 -91 16 78 
-5 106 53 13 
-1 -28 33 -126 
39 76 78 -86 

-52 93 -57 26 
106 46 4 -124 
-96 20 68 4 
112 54 91 -121 

70 18 -107 -20 
81 -55 -124 16 
55 98 -87 94 
-103 80 51 -44 

-74 37 -82 -26 
103 -110 -16 125 
120 125 -41 25 
-106 33 -63 -101 

7 19 -120 21 
-46 -23 74 -56 
23 -60 89 -94 
63 61 74 99 

25 -46 -99 -103 
21 -110 -22 2 
100 -45 -112 -123 
100 -109 -52 61 

-41 106 -105 -114 
52 -24 62 -119 
22 -72 -121 18 
38 110 -56 16 

90 -9 116 -40 
-26 -72 58 -62 
47 100 94 -98 
-84 63 -108 -37 

-56 93 24 97 
-117 123 -22 111 
-59 -8 -46 33 
-70 -127 36 -82 

36 -102 56 -40 
4 24 -14 5 
124 -93 -30 -37 
35 78 -90 -80 

76 -118 49 -37 
42 -2 85 2 
79 75 75 82 
-123 84 16 -106 

-6 -102 23 -110 
75 -76 81 2 
102 58 85 -18 
77 -21 -28 82 

65 -42 -35 25 
32 -23 -86 -93 
97 -39 127 59 
-68 -51 -36 27 

44 -34 -61 -71 
-57 106 -113 107 
125 -36 -21 -5 
108 -55 51 -108 

-82 89 9 122 
-62 118 -15 -65 
-51 90 31 -4 
44 -123 71 88 

-73 114 -64 -117 
77 -109 -102 31 
79 35 -122 99 
-35 97 -103 87 

-114 -112 54 -36 
107 -105 118 7 
31 -105 124 21 
9 -83 -19 80 

72 -26 2 -104 
-59 0 -110 9 
-23 65 2 -101 
-25 -92 -64 -40 

-64 61 -73 -1 
56 36 114 -7 
-121 36 99 123 
65 -113 12 -81 

-58 -28 101 -57 
-85 2 -112 90 
106 37 -71 6 
-19 -66 66 -53 

-43 95 -66 109 
-123 -82 103 -24 
-103 -14 -52 -78 
55 -16 71 -44 

28 100 35 -1 
-111 -4 14 -124 
-74 -110 -108 -5 
-128 -4 54 -48 

52 -52 -91 -110 
-102 -72 -73 60 
35 18 10 13 
117 17 29 48 

-62 87 20 -7 
35 -94 3 120 
-25 0 -16 -3 
-98 120 10 55 

-74 -70 -92 -40 
3 124 -4 -107 
-114 -119 43 -46 
96 85 -37 55 

-9 -108 -51 62 
-103 -97 -22 51 
-97 -84 69 86 
65 -17 27 29 

-109 20 124 -103 
-1 104 60 -87 
-29 -115 59 82 
38 -66 104 119 


88 24 35 -23 
22 -86 -62 5 
21 76 82 76 
-45 78 119 -91 

48 55 0 -10 
124 -73 16 109 
11 -27 -67 -126 
50 26 -25 84 

2 -45 -82 38 
70 93 3 124 
16 -70 89 -38 
-38 -50 -90 65 

36 -108 -37 98 
58 -26 -38 -69 
66 19 117 86 
62 86 -10 -90 

-27 120 -8 -124 
79 54 100 -117 
13 99 101 -72 
33 -7 23 12 

83 -57 44 -119 
-35 124 56 80 
63 68 1 -72 
21 33 -66 -81 

-74 72 -80 35 
20 -36 -66 -94 
-56 -127 -66 98 
96 -96 -78 -27 

119 64 -93 13 
-96 -98 -21 -121 
-126 87 -26 122 
6 37 78 -7 

-14 -126 -86 13 
117 14 4 72 
-94 30 -83 106 
44 9 54 60 

-88 21 15 -22 
-16 -113 -62 -19 
-2 38 97 -77 
-100 62 13 111 

-118 -85 8 -97 
119 52 75 -35 
-37 93 85 25 
66 -58 112 52 

-104 32 -90 77 
68 86 -8 -76 
4 127 -121 -122 
-25 9 -35 70 

78 45 70 54 
47 46 22 122 
67 -101 -117 -65 
0 116 -53 -39 

4 106 -2 60 
82 -63 -94 -49 
72 -113 32 27 
-1 -93 -99 -60 

112 95 -68 -78 
-116 -23 123 18 
-60 22 87 -105 
28 5 -56 101 

-128 -81 55 -70 
-34 -117 -98 -118 
63 -11 126 -60 
120 89 -77 81 

26 66 -12 -53 
95 69 -2 20 
-72 27 23 -74 
-19 0 -6 121 

-85 -79 -65 5 
-92 -86 91 -94 
-48 25 110 -16 
-126 8 -18 -87 

62 73 80 -5 
82 -56 25 -94 
-39 66 117 -45 
-75 7 124 -7 

122 72 -84 -74 
18 77 -109 14 
58 39 -12 -97 
-115 -15 35 -79 

34 -69 64 52 
-120 -26 103 96 
30 51 -115 -38 
74 -63 35 -16 

37 -10 -110 56 
-48 -73 -127 80 
77 44 61 103 
-16 -57 -22 -11 

-43 -57 -99 -47 
103 -8 124 -20 
43 -44 24 -49 
-73 49 88 121 

-121 85 120 81 
58 79 -70 -88 
28 -96 58 46 
-128 -38 110 -98 

92 74 -84 -14 
2 -32 -56 -92 
-122 75 -13 53 
-118 -84 -65 10 

30 95 93 -32 
34 -101 42 81 
-108 -90 -108 58 
-30 38 78 33 

-109 -1 121 122 
-6 -64 118 109 
-70 -88 50 48 
-1 97 -11 60 

25 19 96 105 
-68 8 57 -114 
98 6 28 111 
-44 -114 -109 49 

46 -19 78 109 
122 75 68 84 
-122 -31 -56 -18 
-93 -33 -29 -75 

-113 122 -100 40 
43 100 120 125 
93 -113 79 122 
-23 20 8 24 

96 -38 -102 98 
-64 -62 -26 -86 
-13 -77 14 -2 
81 -115 66 89 

65 76 97 29 
14 -42 -121 94 
-15 -68 3 99 
7 100 -58 -66 


-10 -75 -17 26 
3 -71 45 -113 
112 -118 109 22 
-2 31 -100 28 

-60 38 83 97 
-75 124 -92 -65 
54 -127 23 78 
120 -116 22 -10 

1 -80 -42 -70 
-75 -106 -21 -101 
8 -80 -65 -114 
-116 51 -15 78 

89 -70 95 72 
110 28 56 -124 
0 110 -83 -52 
-76 -42 65 -96 

96 -47 90 -92 
-86 79 -101 71 
-14 84 -36 123 
106 -77 72 -17 

22 -84 -95 75 
48 -118 58 -98 
118 126 37 -120 
-3 -17 -113 19 

126 32 -123 -53 
33 102 120 -93 
48 104 -21 -118 
-31 88 121 83 

-8 -8 -29 97 
74 -6 -61 -32 
-126 -121 55 -71 
65 23 123 -30 

-70 -68 16 -88 
-118 -34 -10 -97 
-10 -115 -89 1 
125 8 34 -107 

-37 80 30 -39 
-3 -71 91 76 
-61 -21 24 50 
15 -65 29 -28 

-75 26 97 -42 
-109 -103 86 105 
-103 -53 -62 60 
-4 -57 -35 52 

-38 -63 85 -31 
56 55 -25 81 
11 -54 -71 68 
-120 -31 -32 122 

-7 -18 -125 67 
30 -32 -96 -8 
-21 98 35 -77 
-27 -74 -97 94 

125 -18 15 -55 
-45 46 13 -67 
-78 33 -69 -48 
-37 -61 113 -99 

-38 -54 -53 27 
77 -23 -17 34 
-107 -90 91 23 
63 -70 -29 95 

-16 -78 89 51 
101 113 -2 16 
-40 57 46 57 
-48 3 85 -97 

-87 102 21 83 
22 126 -76 -89 
58 -79 -118 -125 
69 45 -96 -44 

-103 75 3 62 
61 -128 -28 -47 
43 -18 89 83 
-104 2 87 -11 

96 88 117 -21 
20 62 70 -11 
-120 49 -7 122 
-85 -104 -80 60 

-34 117 71 -59 
-38 -101 65 9 
-96 0 3 -63 
61 -83 -68 16 

-83 -22 -70 6 
-127 -79 83 -59 
85 -32 22 -41 
126 34 38 -73 

-73 -43 76 -59 
49 82 -81 -111 
22 4 47 78 
71 92 63 -33 

73 79 118 -11 
-27 -44 62 31 
-32 -13 -72 93 
-91 66 -76 13 

57 23 -61 -79 
-16 -54 61 -55 
74 6 8 -14 
78 21 119 -80 

-8 50 20 -25 
1 38 18 112 
4 -2 -96 8 
53 124 109 -115 

16 61 34 31 
14 -126 36 47 
-15 -40 119 115 
-70 116 -103 -38 

-64 -14 -17 -22 
-115 119 33 -59 
1 97 -86 -122 
-54 112 -105 -66 

6 -56 101 26 
-33 -18 120 -3 
107 -106 -3 -32 
-30 -90 123 -110 

21 -35 -55 -73 
-69 -59 88 86 
98 -127 -64 -103 
-96 -106 121 -99 

37 -108 51 23 
101 64 53 -10 
21 -68 -92 -56 
52 -18 4 -4 

105 2 110 -36 
-2 -34 39 -66 
-111 29 81 127 
13 -96 -38 -2 

-57 13 32 118 
-51 -73 -32 124 
-67 52 -43 -5 
92 -53 126 -76 


125 109 -22 -111 
-114 -16 33 -15 
-14 -69 48 94 
101 -21 5 -70 

121 66 -85 -124 
114 -72 -38 -78 
51 0 -121 -94 
111 26 -97 -44 

-73 125 24 33 
97 -59 102 126 
43 -47 30 25 
123 -66 11 13 

99 30 -123 -79 
21 121 -37 29 
-44 72 99 100 
27 -102 -61 22 

107 -36 -71 -6 
-8 -121 -123 -12 
-24 -62 -54 -19 
56 18 79 -125 

-65 46 106 -86 
-124 -112 100 -93 
49 -24 41 99 
43 33 -92 -61 

121 26 -3 38 
-90 -122 -119 -78 
125 -90 10 86 
12 56 -22 -102 

-14 80 -114 -50 
71 -93 -96 13 
-78 74 -95 -76 
94 4 -66 -25 

64 116 51 33 
27 -55 112 22 
5 -40 -19 -31 
92 -46 -110 31 

-38 -113 -26 -11 
-24 -63 -128 7 
-67 68 43 49 
-21 101 23 52 

89 49 115 57 
-93 61 -53 -87 
-20 -48 -46 -5 
-51 115 -60 -79 

-79 50 50 -107 
97 52 -111 90 
-17 81 -100 73 
7 -101 105 -61 

25 75 -92 17 
-103 -112 -22 33 
45 -47 -26 20 
-95 51 -56 6 

114 -11 -120 9 
59 50 -76 34 
63 -54 109 77 
64 76 59 -57 

81 79 10 -116 
39 -44 121 15 
26 45 -22 -79 
47 -31 -97 -100 

116 122 115 17 
90 122 -100 26 
-18 13 92 33 
-91 10 15 -122 

90 18 113 -72 
119 -26 -76 23 
-6 9 124 11 
95 -82 16 45 

42 11 -107 46 
29 -28 -105 -34 
104 -31 -43 -113 
-11 45 35 30 

-43 -50 -91 4 
105 -116 125 46 
-111 -15 -7 80 
-69 -35 47 -124 

-98 -88 -54 83 
110 -109 -55 -123 
-118 -15 72 16 
101 -68 104 -95 

93 -75 -43 71 
9 -94 73 -91 
-50 24 104 -56 
44 -22 126 118 

65 106 -90 -1 
104 64 -105 -15 
63 -1 -99 48 
13 -86 -114 0 

-91 -63 -119 -95 
85 80 -109 -63 
94 -57 2 45 
55 0 69 -46 

14 63 72 -127 
-4 -40 82 -66 
-68 -51 54 115 
117 -91 116 -22 

-115 -108 -127 -82 
-51 68 -43 80 
-120 61 17 -58 
30 -29 22 42 

-89 96 18 -49 
100 -42 67 38 
-114 -9 23 126 
53 -45 -120 12 

32 -21 16 -95 
94 25 -110 77 
25 1 5 -80 
76 -24 -11 -119 

20 -4 120 -33 
54 57 111 0 
103 -120 95 35 
-111 103 105 -30 

-9 85 -47 -42 
-28 -124 -101 45 
-14 21 -109 -117 
72 -117 -37 122 

-126 21 -31 -27 
-31 -113 -87 -30 
51 -57 124 -29 
13 72 64 74 

75 -72 -123 -70 
-38 -21 71 -77 
75 -106 -72 -123 
-86 88 124 -67 

-94 30 -9 -74 
-8 0 -121 60 
-72 -24 -50 -57 
5 118 -48 -93 


19 -84 -35 -44 
-46 -6 -32 -76 
-33 116 48 24 
63 92 -11 24 

3 -100 -29 24 
72 52 -106 93 
-107 14 28 48 
43 -113 -16 -5 

-116 -93 79 30 
-53 -40 61 -118 
36 -84 62 -113 
-42 98 -62 -114 

-74 42 -13 -42 
1 -15 -64 -96 
7 116 -25 68 
37 -54 107 -13 

-112 106 115 114 
-102 116 87 69 
34 -11 -52 -67 
1 57 72 31 

36 -6 109 -11 
-13 92 -36 -58 
118 51 41 -45 
-66 -108 -27 58 

13 71 97 49 
103 -102 98 8 
56 -54 111 -88 
-39 -101 -116 10 

-34 77 61 -76 
9 -77 56 -118 
-69 60 75 68 
67 117 53 99 

100 -2 -108 110 
35 -30 -80 -103 
-109 -64 47 3 
82 -44 -112 -22 

-92 46 29 33 
-38 71 1 -105 
32 46 -89 67 
-49 -25 85 22 

-34 26 -92 -125 
115 88 -11 28 
56 -15 107 2 
73 52 -37 -61 

-117 98 -36 -98 
100 103 -24 6 
-68 -20 -113 28 
-105 59 40 -81 

31 95 107 -89 
-73 45 120 110 
-70 -82 -18 -55 
90 -87 -32 -9 

-4 -40 -65 -48 
118 91 86 -28 
71 120 52 54 
114 100 122 -66 

68 -81 -72 103 
-77 119 103 -105 
113 -21 -17 28 
-66 125 -66 22 

-97 -18 54 -46 
67 73 30 -64 
-61 -89 -21 -4 
81 -43 5 -67 

4 -20 109 125 
-50 71 -3 -92 
19 71 106 -83 
-6 -66 82 58 

-47 -75 -2 -23 
-114 6 -27 74 
125 -23 -77 63 
52 -89 -29 117 

17 -60 94 -87 
98 -120 -18 85 
-85 113 34 104 
-33 46 104 34 

33 38 -29 65 
33 -53 16 -113 
121 119 -24 106 
94 -61 2 114 

-116 42 -21 111 
46 65 -45 84 
-103 63 65 -97 
-30 51 54 6 

-58 99 -61 -8 
99 44 17 -79 
38 -52 -36 78 
-94 33 -72 -67 

-17 -114 93 33 
-29 122 59 -43 
106 70 -17 -63 
-75 34 -45 62 

48 -116 -8 88 
-3 94 -75 -121 
105 43 -118 -61 
64 9 -111 -20 

-53 -44 -121 21 
40 57 -37 52 
-76 -101 -63 -114 
31 110 -78 5 

2 -26 -55 70 
69 53 -20 -36 
73 44 -123 -54 
-40 -29 -33 37 

-26 26 35 -36 
24 126 -89 35 
-23 116 -51 10 
-25 100 65 20 

46 -83 -56 -122 
-96 69 -78 -89 
10 36 94 -63 
-94 -24 -83 -26 

40 -99 -122 -112 
126 84 -6 -9 
-106 -14 84 -128 
-107 -114 79 121 

96 68 -91 98 
110 37 -123 -67 
62 -12 54 123 
-92 -29 -1 87 

54 57 -55 -120 
114 83 -112 49 
-65 24 71 120 
-60 63 -48 -80 

-60 35 116 71 
49 -79 36 7 
-2 60 20 -90 
-1 -5 115 -93 


-96 39 -107 -127 
-64 38 -124 93 
38 60 26 -33 
15 24 85 113 

-98 -110 -64 -52 
-119 -34 -100 -58 
-49 93 77 116 
69 110 15 -27 

122 17 -83 -35 
-7 -94 88 74 
-94 -115 71 -66 
-31 64 85 -13 

83 -84 -16 -65 
-54 -77 109 -29 
-27 125 -78 -121 
-89 56 -93 96 

86 -79 109 99 
63 -33 -52 64 
-55 108 98 -109 
-59 22 -118 -62 

-8 25 -52 -76 
-109 -25 29 89 
-61 -104 16 -7 
-64 -11 -82 -59 

61 -36 69 15 
-61 93 -22 -107 
70 -65 115 75 
82 -57 1 75 

17 -44 -20 -75 
38 94 5 -9 
-74 32 -31 44 
-4 15 9 -23 

-81 10 120 91 
65 123 -114 -103 
-19 62 -2 -9 
-71 103 111 17 

106 -93 52 -79 
94 89 69 -118 
-75 51 33 -126 
97 10 -117 0 

-18 -94 81 95 
-27 5 -23 119 
-47 113 108 16 
1 -78 -58 86 

81 99 -109 111 
-94 116 -12 -87 
24 -84 -86 -122 
101 -77 13 35 

42 9 15 -14 
-117 -57 -78 80 
93 76 -108 -65 
28 111 85 15 

-95 -116 -123 80 
-107 81 79 23 
47 -29 96 -65 
-14 -75 112 107 

-3 -85 111 86 
-40 -4 -9 98 
-62 -37 -56 24 
56 115 -61 113 

-77 60 102 2 
-123 53 86 -98 
-17 -115 -99 -97 
76 -72 101 -57 

-33 -128 86 115 
-105 -2 -88 -54 
-40 95 64 52 
-92 16 -58 49 

45 -43 53 -64 
-74 -83 -5 105 
60 92 70 -107 
99 -105 112 -32 

7 21 -94 -101 
110 103 84 -53 
-79 -104 -60 29 
-124 70 -103 13 

24 -18 104 -79 
97 4 -26 -98 
-5 -86 42 52 
-27 95 5 1 

69 35 -82 -41 
87 19 -59 -22 
16 -17 -88 -91 
48 -93 122 -124 

45 -70 5 -13 
51 -5 86 -60 
-83 -101 63 71 
-92 -1 74 -19 

-66 -124 -121 -9 
114 -79 110 -32 
-78 19 -60 -10 
-95 -51 54 -23 

27 71 60 45 
114 2 29 105 
-104 76 -25 54 
-119 -28 93 -11 

102 104 0 -71 
115 -85 119 31 
-2 -55 -49 -83 
60 -101 73 104 

53 50 60 -74 
-124 -69 -126 109 
115 63 -75 58 
-94 99 -38 -3 

-40 33 -96 -24 
47 82 59 -87 
-101 -7 124 113 
122 -87 -66 -16 

102 76 -8 -4 
54 91 46 -111 
-1 79 -20 -102 
109 -71 28 -23 

-65 -128 41 -55 
108 35 -81 -30 
-65 66 -76 65 
-70 -72 60 33 

-58 61 -119 55 
69 67 12 -70 
45 -10 4 -48 
109 101 -81 -108 

43 -120 26 -104 
103 46 -40 -53 
-74 -88 81 96 
125 11 -120 40 

-50 41 -124 -40 
37 -122 40 -121 
-11 -8 79 87 
-109 33 -10 124 


2 25 -104 -112 
52 -20 82 101 
90 -97 -13 110 
31 -22 95 -11 

-46 4 -127 -54 
18 75 -21 -121 
36 -125 -15 -39 
-3 -10 -52 59 

87 -107 -71 -95 
-63 -49 77 71 
-110 55 99 -99 
-76 -97 35 -87 

4 78 -42 -84 
100 41 -68 -90 
-32 -5 3 55 
53 29 92 3 

-92 25 91 7 
-95 -65 34 -55 
-125 74 66 -79 
-98 -17 99 78 

92 -26 -61 102 
-85 -67 -13 -26 
-40 123 47 -50 
-35 -85 -96 -97 

33 -45 -37 27 
24 11 45 -20 
-12 -86 -45 -111 
-45 87 16 45 

122 25 3 -29 
-23 -43 11 125 
-108 77 -32 -128 
-107 -23 -119 -23 

-117 49 -52 78 
-17 -108 -115 -67 
86 -24 119 126 
50 68 53 -98 

-9 56 90 66 
30 -27 -34 -103 
19 -73 -110 92 
113 19 -26 68 

-22 84 -28 -53 
-23 69 92 -76 
17 72 55 -11 
116 112 -76 -76 

12 -60 -27 33 
107 -65 -22 -48 
-101 -54 -97 109 
107 127 23 27 

23 60 8 117 
-73 -78 -125 -81 
39 -63 -5 -77 
-58 -11 30 -76 

-103 -45 122 -112 
0 32 -19 -5 
-12 -68 60 -125 
-60 112 -63 123 

-24 93 -113 -66 
-94 -66 -111 -38 
74 11 -56 -61 
-27 59 2 -56 

-121 -118 -104 -37 
-10 112 68 89 
-124 96 26 -45 
-122 123 38 96 

-71 -111 48 -7 
-76 -112 62 -49 
-47 -26 -18 125 
-44 -65 -1 -71 

-123 -115 94 -35 
68 118 101 45 
30 -64 28 82 
-107 88 -79 35 

-22 32 34 91 
-10 75 -125 84 
-61 99 -126 -43 
-126 118 -20 113 

79 13 -63 19 
-16 36 -80 -8 
46 -69 63 23 
-38 37 -124 -34 

-85 2 33 -86 
117 -37 -31 99 
56 -31 32 41 
-15 -60 -77 73 

8 53 -122 -60 
-51 -46 63 -118 
-43 11 72 -28 
-73 73 107 -114 

-50 -54 55 -11 
41 46 46 117 
-8 -89 -83 10 
-8 60 10 45 

-122 97 -34 111 
-118 -38 -11 -99 
22 -74 62 50 
19 -13 -20 -66 

4 22 48 39 
79 -6 -78 -89 
117 43 46 -82 
118 -18 -22 -111 

52 -104 57 -114 
-105 -87 -41 4 
31 66 127 -42 
-107 123 92 -91 

-117 -27 48 26 
-73 6 -9 -112 
5 33 -54 -87 
-93 -64 77 -77 

75 -1 -36 -52 
61 -118 94 -54 
-90 108 16 -8 
81 33 -118 -61 

55 20 75 -109 
70 -5 70 -106 
56 71 13 -127 
89 -22 -35 111 

107 -114 16 -63 
125 16 -91 -25 
-73 -72 -98 94 
-10 6 87 51 

-61 -32 117 37 
8 -124 -87 43 
101 38 -111 49 
-102 29 98 81 

-52 -125 32 -23 
77 67 44 14 
-96 14 -10 -92 
-58 124 -47 122 


71 -62 85 30 
-81 16 -5 32 
-44 -9 8 -49 
71 -78 -118 -15 

59 -27 73 -86 
12 -15 -101 60 
-34 35 -69 4 
-28 -3 -11 84 

-91 2 -122 -13 
52 104 47 50 
32 -73 53 -127 
13 -51 -113 -109 

-57 -5 110 -104 
44 10 115 36 
58 108 -21 117 
20 -79 18 122 

-89 119 -69 -59 
-62 125 37 -109 
15 -105 -48 -13 
-73 41 -26 -65 

48 51 -10 -115 
-49 -28 15 121 
-69 107 -42 -76 
-99 -70 76 0 

-101 -106 -85 -121 
-90 80 45 -106 
39 31 -87 50 
32 -124 20 -75 

-1 -17 111 -42 
10 -78 -34 50 
-77 -120 -118 -71 
28 78 -112 -86 

54 -98 24 -108 
81 -12 125 91 
53 -14 14 -35 
56 46 -128 -68 

84 50 70 -77 
-94 -92 8 59 
-98 -2 -24 39 
-67 90 38 33 

93 3 -74 92 
104 9 -48 79 
-33 -124 89 -114 
-89 92 1 -29 

84 109 53 -107 
75 -33 -8 18 
-16 120 -36 -34 
65 -84 19 -54 

-76 -99 75 -82 
78 40 -106 -1 
-122 -38 -121 118 
-84 115 -61 -8 

-50 116 -1 -94 
-105 58 125 -16 
-126 -124 32 -57 
-116 61 35 16 

39 -69 -100 -88 
48 -83 82 -79 
43 -35 31 107 
30 127 -54 -108 

30 -46 -67 -64 
-113 85 -11 -117 
-65 91 -53 -110 
-41 101 -110 41 

-51 118 5 -119 
-17 76 -117 61 
-97 3 33 21 
-83 17 -51 -9 

12 117 53 119 
60 -70 -51 107 
-50 -83 -127 42 
47 -74 34 -63 

109 -50 -2 113 
-57 8 -102 -39 
-38 -1 100 59 
65 38 -49 97 

78 72 -98 -19 
-62 -72 -81 124 
-47 -3 -101 -84 
117 26 77 34 

11 -33 100 -110 
114 61 103 -94 
-73 100 69 -95 
21 -78 58 -70 

-40 -78 45 -26 
-75 -18 127 42 
-110 -52 -45 59 
-29 97 56 -106 

-10 -123 101 -73 
-90 72 -92 72 
-45 6 -45 -60 
16 125 62 38 

105 62 -38 -57 
3 107 -121 -38 
-60 105 -119 26 
-74 31 -82 -113 

14 -92 -82 -58 
63 5 -115 -10 
119 -119 47 -94 
54 -43 43 -19 

22 -66 71 98 
67 116 -91 125 
-111 107 17 39 
-13 50 -91 -101 

119 -39 -84 91 
-50 68 -52 -106 
74 -15 -98 75 
14 -84 -110 -93 

121 -47 59 112 
-56 42 101 -51 
16 -99 -10 -29 
-11 -72 -22 -107 

-52 122 -115 -91 
88 103 -56 41 
-29 82 -51 102 
-95 21 -23 68 

-35 43 21 6 
101 68 38 39 
70 -125 26 73 
-105 -16 12 105 

70 -4 104 18 
35 57 -84 97 
-47 -17 -1 82 
-31 51 -80 -30 

-20 -43 -24 -53 
95 -71 36 -42 
-113 68 53 79 
73 -40 -40 23 


31 2 -114 51 
33 75 39 -116 
13 -82 42 77 
4 -104 -52 -23 

48 -81 72 102 
97 17 -50 32 
-43 -61 95 90 
-49 -21 62 -28 

-86 103 118 33 
121 118 48 -6 
44 -35 -31 99 
-5 -5 56 25 

-75 -12 109 113 
117 -110 46 -21 
-114 11 -48 55 
-108 -2 103 -22 

-88 -67 118 77 
106 42 -75 17 
63 -107 125 -41 
-39 15 -127 -55 

5 91 47 22 
78 34 -109 -98 
116 -42 -44 29 
108 -100 -77 28 

62 69 73 58 
84 -21 -111 31 
70 -22 -109 59 
-81 -84 -4 35 

39 68 56 -111 
21 23 5 -19 
-125 -49 19 -41 
61 -35 -29 113 

-14 -68 47 96 
-57 -78 65 -21 
53 -40 25 -80 
-15 7 -37 125 

42 100 39 -83 
1 -106 5 73 
-69 -19 -13 106 
-12 69 109 118 

42 38 26 39 
58 114 -60 75 
-40 -2 -34 -8 
-120 23 -74 57 

-107 -75 100 -87 
-54 -122 108 -108 
62 65 -80 -15 
-16 9 52 115 

14 -88 41 120 
103 16 -49 113 
105 5 11 35 
68 45 -16 83 

126 -57 -19 -42 
46 81 59 -41 
99 113 -6 -21 
-25 116 -28 60 

-1 -128 -49 86 
36 -104 -43 10 
-15 -68 -126 -14 
105 -105 -77 25 

109 -37 119 87 
-55 117 47 91 
118 12 74 1 
-102 -80 79 -58 

123 -5 12 14 
-68 -24 89 -86 
76 15 10 125 
13 -46 21 -111 

-39 -48 106 -58 
58 126 118 -43 
56 126 -6 -54 
59 125 10 -121 

-14 -99 66 16 
-81 28 59 11 
-110 -105 -82 13 
53 91 75 -54 

-4 -81 -4 -21 
67 -93 87 -122 
-26 -124 53 3 
-72 -114 33 -7 

-74 -29 104 4 
-53 -47 35 -81 
-118 75 -58 -64 
-85 -3 33 2 

0 -110 -93 -99 
-37 98 -114 -91 
65 64 2 -11 
-12 -42 -18 -124 

-23 119 -102 -88 
73 60 43 55 
29 -9 -57 -72 
18 20 -43 108 

87 -99 -62 -90 
64 0 -65 2 
26 -98 30 -104 
75 -49 23 -86 

104 -105 52 127 
2 -76 17 119 
60 53 -93 -119 
-21 -89 -70 -54 

22 93 4 -108 
-106 -17 56 -114 
118 20 126 81 
38 2 -118 69 

35 90 47 40 
72 -87 -37 -32 
48 -122 8 -67 
-26 -94 -16 112 

-12 117 -87 -100 
-8 -3 -63 55 
14 -114 63 76 
124 112 -106 99 

76 -127 84 -123 
114 10 -79 27 
99 37 -21 -25 
-21 -53 -10 -37 

-6 -88 46 38 
-50 6 120 -48 
8 2 -8 -101 
-72 79 86 -63 

-31 76 35 127 
-64 -49 -64 36 
30 67 33 59 
13 77 30 -98 

-108 -22 -5 78 
-94 53 48 -127 
72 83 4 -59 
-4 86 -59 -103 


-23 -108 75 -27 
27 66 -9 -46 
64 97 6 31 
-70 38 -116 -67 

60 -31 -120 91 
89 79 -5 74 
-81 -108 -39 91 
-61 -61 54 -109 

-96 -12 -15 -29 
-54 24 12 -51 
16 61 -6 -37 
84 -36 115 109 

87 77 -16 -10 
-121 -83 -113 29 
63 -56 71 106 
-5 -103 -76 -11 

105 -7 93 18 
-59 -104 91 -59 
53 -52 124 -70 
105 118 -3 -78 

-83 -2 59 36 
-42 123 -2 -71 
-86 105 75 -61 
38 86 101 -74 

43 -98 -99 57 
-74 123 61 32 
-55 -33 23 109 
90 95 -70 -76 

2 64 81 101 
-97 -86 63 107 
101 118 -117 -42 
-58 -109 40 -83 

-75 -92 -22 116 
-12 73 5 -121 
-49 -80 14 97 
117 -93 18 116 

-127 14 38 -31 
20 -21 4 51 
52 48 82 -85 
116 -80 55 3 

88 2 56 -22 
63 -83 -115 -67 
22 47 49 25 
-35 -101 -109 -109 

85 -69 38 77 
59 -41 -40 -12 
96 42 -96 116 
114 -118 -86 55 

-88 11 -41 -72 
-60 -18 -84 79 
-29 96 123 -44 
65 -9 -102 88 

-38 -68 -46 94 
80 -75 62 36 
67 65 -54 -88 
-74 92 -41 -103 

-113 -128 96 -88 
-4 110 -20 -46 
78 107 -101 -9 
-119 49 -108 -3 

-70 -98 -61 33 
-89 98 112 105 
-123 -90 67 -45 
118 -124 14 -17 

-21 100 -86 -108 
-81 -97 -23 -121 
22 -31 4 -23 
28 50 -100 33 

90 36 15 18 
-49 120 -95 -53 
91 -25 -70 -87 
51 43 56 49 

-54 -1 99 115 
62 -85 -120 0 
96 105 114 -47 
-1 -4 -96 -10 

-53 49 -79 -92 
-120 123 121 -37 
-15 35 40 103 
-58 -114 -105 -91 

-46 97 14 4 
-126 80 -41 -124 
-119 109 -63 80 
39 5 -93 21 

-6 -74 -51 -8 
107 -19 8 39 
-118 -62 81 39 
-70 -108 -69 -84 

58 115 -1 45 
11 2 73 66 
-85 -7 -114 102 
95 -83 -48 -125 

-126 112 53 -27 
76 4 -115 -125 
-73 -5 61 -123 
-91 -126 7 -37 

77 -23 15 -84 
-64 84 125 -61 
-50 -53 -5 35 
0 -100 -109 -42 

-60 120 24 122 
36 93 -23 119 
76 21 3 11 
-64 58 -106 90 

-60 -107 -8 24 
47 43 -65 -65 
3 -32 -45 118 
82 61 -14 -31 

-7 -5 -19 -106 
95 119 -110 95 
-17 120 43 -81 
37 52 -101 -69 

47 28 -75 96 
80 39 -31 110 
123 116 24 97 
38 -126 123 59 

-60 58 113 35 
-13 111 -102 38 
32 115 52 102 
-13 -123 84 -28 

-88 3 -19 38 
-74 -7 69 -36 
123 63 3 -19 
-81 -125 41 8 

-83 -19 71 -50 
31 -4 102 58 
52 -107 5 -28 
-27 87 -28 115 


-51 109 5 116 
90 -36 54 -79 
-66 46 126 108 
-34 91 11 -111 

12 -71 -85 -33 
46 74 65 -38 
126 -49 50 -5 
113 24 13 -57 

111 -61 70 -58 
107 -55 44 -72 
-71 -42 -66 22 
-88 -22 -40 -76 

-76 -33 117 -88 
-5 -67 -22 -103 
-90 66 -45 35 
84 3 -123 34 

-90 -121 -16 -59 
-116 120 -59 -105 
-60 -15 -31 -62 
109 84 127 -4 

-47 87 -57 -66 
40 116 95 -24 
58 106 -89 42 
-40 -32 -107 -25 

-72 -72 81 -110 
-60 108 -98 -74 
63 -120 -16 68 
90 -37 64 88 

91 16 -92 121 
-33 14 -104 -79 
-31 -19 -31 78 
-2 89 -20 7 

79 119 -56 -33 
101 122 68 -6 
-64 43 65 -112 
90 29 14 99 

44 -85 25 26 
79 -95 -122 -48 
-44 59 102 -46 
1 -81 -30 38 

38 -81 78 -93 
-100 -7 62 2 
42 86 -104 17 
-36 -44 110 -98 

81 -44 15 -59 
-92 -118 -105 45 
79 -116 -21 -36 
20 3 -57 68 

55 70 59 124 
90 29 -65 -36 
-84 -126 -69 -117 
115 56 -11 -117 

-25 52 109 9 
-43 -40 -23 -89 
68 60 77 73 
-125 -78 -42 -115 

-60 -11 -116 -81 
-36 47 127 -100 
52 -2 51 1 
-17 -47 -127 -68 

68 101 -3 -123 
-31 -69 -65 -35 
92 58 -45 -127 
-48 24 40 112 

-101 30 -16 80 
67 80 73 -4 
-12 70 48 -116 
-15 -26 -14 -35 

41 13 22 -38 
79 28 103 43 
-80 -56 107 -29 
34 -4 -75 -23 

-115 43 20 -77 
55 -62 9 -25 
-110 9 123 -10 
27 76 -89 -16 

-17 4 40 -28 
-23 -65 50 -123 
1 -122 14 -65 
34 -10 119 -20 

98 -26 -77 -124 
82 34 -96 -104 
35 28 -74 116 
111 104 -83 22 

-117 103 77 -32 
-66 15 6 11 
9 97 -14 -123 
-97 -73 4 107 

25 -14 -74 -117 
-6 -108 63 33 
28 -33 104 18 
110 76 -84 65 

-86 81 36 -55 
68 -79 9 -98 
58 116 -110 -67 
-2 -41 112 78 

-115 -110 -81 -4 
-83 -86 21 -20 
98 42 -36 44 
-11 -67 -81 73 

30 58 -28 98 
-125 -72 -108 102 
93 -73 127 -34 
47 -68 44 -78 

79 -84 23 -111 
-38 99 -98 -33 
12 -47 118 95 
16 -12 124 29 

107 -123 -12 -45 
-24 96 69 -94 
13 44 -62 -3 
-12 73 106 -66 

39 99 -11 2 
70 56 35 94 
-40 -127 56 -90 
44 -122 85 35 

17 -111 -52 87 
-58 72 -22 123 
-53 -126 -49 105 
2 72 74 -6 

-85 -89 -26 66 
96 109 -37 94 
24 58 5 83 
107 90 -74 -95 

95 127 103 -55 
-79 2 -72 59 
-110 102 3 123 
-7 -26 -1 74 


-111 -9 -93 -57 
70 90 -52 19 
-52 63 62 118 
-54 103 119 -70 

59 72 63 -93 
34 -31 -44 -45 
-103 -55 -30 -16 
55 -32 -59 -115 

-99 -102 -41 -53 
-22 96 -108 -5 
86 56 -39 -47 
107 -49 9 92 

-27 -61 -2 72 
6 38 -18 98 
110 105 8 -35 
1 19 -68 55 

-89 25 -14 17 
-109 90 91 80 
-18 -125 -60 -97 
34 0 -67 -99 

-66 50 -41 -59 
-46 -4 -38 76 
-57 54 0 -120 
69 -109 -36 -121 

-58 96 -1 27 
49 -126 53 -115 
-4 -67 108 -7 
-115 104 28 -37 

-32 -108 56 125 
-5 -84 4 35 
9 -18 -53 79 
-96 -7 13 96 

-104 -16 29 25 
-86 105 52 -35 
54 -92 -4 -20 
-71 30 36 -105 

-15 103 -54 -60 
122 -125 -119 -85 
113 -104 -42 -112 
122 71 56 33 

100 -114 -81 -88 
-78 71 -19 63 
13 80 -79 80 
-117 -80 -50 -50 

108 106 7 108 
-48 16 81 79 
-42 57 -100 33 
117 -2 -83 -41 

105 39 -85 -106 
-84 70 -63 17 
-24 -42 81 -84 
116 -91 7 -109 

10 -13 -8 71 
51 -21 -36 -111 
-33 109 80 48 
-62 8 111 -93 

91 23 -52 74 
-16 -115 -25 -68 
-120 -99 -57 -96 
-10 -48 27 3 

-121 113 -110 78 
107 -5 -45 -84 
61 122 -40 -79 
77 -97 -39 110 

-33 -40 89 -25 
68 -115 -65 -64 
38 -33 -29 -54 
-83 -34 12 -61 

-52 -3 -72 -9 
83 37 -112 -98 
-76 113 12 -48 
-70 3 43 -14 

-22 -86 -103 2 
73 -98 -48 -41 
119 82 -108 -55 
-114 18 -112 -110 

-90 -82 -68 -90 
-103 -4 99 82 
122 28 -9 68 
1 -99 -106 -95 

-85 21 -37 28 
55 -99 -97 123 
98 68 7 37 
-11 -100 -29 -8 

-18 -97 -41 75 
59 -75 79 -30 
-68 107 -81 71 
33 105 100 -65 

-76 -24 117 -117 
-42 12 -75 -77 
82 48 112 -67 
103 -31 -39 2 

26 -84 -11 -64 
-109 93 -87 103 
55 28 -51 -41 
-43 14 123 -101 

19 -33 -86 -81 
63 33 -39 87 
-95 -3 21 -8 
-17 -58 -56 -76 

95 -2 78 -8 
-45 2 116 35 
8 54 5 -7 
36 126 64 -69 

113 -30 -63 95 
-60 114 120 -28 
44 -8 25 66 
-33 -14 -95 -66 

-117 30 113 -76 
2 110 -116 -57 
-124 55 -127 -101 
22 47 42 -109 

95 4 55 -49 
-89 -90 -106 -2 
-101 -49 -76 -98 
-25 82 -72 31 

-80 50 -119 -31 
-42 -117 17 68 
112 -44 -28 90 
104 -16 -97 64 

-100 -93 34 -9 
55 120 -26 92 
-7 -78 -123 34 
-25 -44 88 21 

-101 -24 77 -125 
-114 13 22 -59 
-113 -99 106 64 
9 56 -112 69 


54 88 37 88 
51 -73 48 -69 
66 -113 88 4 
-48 -66 -93 36 

63 -32 -99 -24 
-52 38 35 36 
-10 119 -88 -17 
17 -38 -31 5 

-93 30 -117 -28 
117 -42 -1 -36 
-60 27 120 38 
102 61 -5 22 

116 -107 -14 8 
-45 93 28 7 
95 107 39 77 
39 56 -85 73 

71 22 -107 -10 
97 33 63 -84 
35 -27 -40 99 
101 63 3 110 

-44 115 74 -110 
-121 116 -97 -3 
-104 -77 -33 1 
15 74 108 55 

8 112 44 -84 
-43 -54 -77 -15 
-23 72 -61 -22 
71 -16 -14 79 

-46 54 -88 -89 
-39 10 -42 -70 
5 17 -10 -52 
-66 -102 -45 -2 

-69 110 -124 -124 
78 -79 69 33 
-119 64 -86 23 
-119 1 53 23 

-5 -3 -83 -54 
-108 104 21 -7 
102 50 -27 116 
-55 -67 -23 -11 

-67 -80 -84 71 
-42 47 26 -51 
-31 83 69 25 
-44 -122 71 -57 

-41 -87 2 -10 
87 121 80 -33 
-80 82 80 23 
44 106 115 108 

-58 34 68 4 
0 -13 13 20 
8 7 33 -89 
74 109 73 65 

118 -50 -44 9 
99 -25 59 97 
-98 38 -53 -32 
94 21 -49 -57 

53 -83 17 -68 
-16 -24 117 -68 
-50 -56 51 -108 
-73 -121 27 -49 

-125 -85 -61 38 
34 -127 -106 28 
108 -89 89 87 
-124 3 75 31 

85 -59 50 40 
52 -122 103 75 
-53 15 29 104 
97 49 111 -53 

82 93 -89 39 
-12 2 -22 -126 
6 -20 34 -113 
30 10 77 20 

91 -34 -51 45 
-128 102 109 -62 
121 -3 105 -102 
116 12 -26 93 

2 -22 16 48 
-50 111 58 84 
-37 -37 -90 -80 
46 -67 41 36 

-91 -48 116 -119 
-100 -49 14 -5 
63 54 20 49 
-27 -53 -15 104 

107 -102 -44 18 
-15 97 44 -128 
75 109 91 59 
97 -21 86 2 

-70 -36 -3 -40 
38 6 -16 -56 
-70 44 -79 -102 
58 -94 -78 43 

-110 -55 114 -45 
68 -120 73 -86 
-15 -16 -73 -58 
66 108 -61 114 

-63 10 -33 72 
-73 78 104 -77 
-27 -110 -87 84 
-115 46 101 -89 

105 -109 -122 103 
81 -40 58 118 
-45 112 -85 117 
103 33 113 117 

-108 -126 43 -112 
60 49 -73 65 
-98 98 -30 101 
1 -9 -122 -30 

115 -22 -74 -115 
-100 -62 -92 -19 
66 -86 -86 9 
-10 -2 37 92 

-23 5 -51 -2 
-94 -62 -101 119 
-75 -49 -39 -101 
-79 71 39 109 

23 -3 82 97 
-3 -96 1 -85 
-103 114 -82 108 
-86 16 -101 -12 

-63 -85 126 -31 
63 69 27 -92 
33 -80 58 88 
-50 -39 89 95 

-13 -44 38 -123 
-104 -19 52 -93 
-31 -31 118 -34 
87 46 -117 -33 


3 -72 53 -34 
-84 73 -10 -108 
-103 -6 -59 -78 
54 88 -65 -114 

-106 -59 -81 17 
-113 64 -108 -13 
-82 -27 -1 26 
-99 -111 -18 -66 

123 37 -74 -73 
-59 -19 -36 27 
3 66 92 -75 
8 -17 -79 22 

-41 -62 -104 -22 
-85 19 43 -43 
-96 -3 -80 98 
-38 127 70 -44 

99 -27 101 81 
33 -22 75 67 
45 99 -35 49 
88 55 75 108 

119 9 -48 54 
-87 98 103 -7 
13 15 3 110 
-43 107 -37 -125 

-103 1 118 5 
38 35 -22 40 
-22 71 -56 -32 
-66 -81 103 66 

43 -125 -4 117 
80 4 124 -63 
61 90 -37 51 
-23 47 -86 -63 

-2 62 51 -90 
55 -63 5 103 
-60 35 84 -117 
-75 123 -39 -100 

18 116 -111 -117 
125 -17 -32 -32 
-82 -78 65 -107 
-38 122 8 -124 

57 126 83 -65 
48 -73 -98 71 
-40 -8 -114 -10 
65 -46 -12 -54 

-80 -78 -20 86 
14 67 78 -119 
-50 -46 -103 111 
-125 56 -15 98 

-69 -83 -10 97 
124 46 123 3 
1 -49 51 108 
-34 -13 -11 69 

95 -68 69 -63 
5 -119 -117 -38 
-26 -118 -15 66 
-104 -62 2 -87 

-119 -66 -117 73 
45 19 -26 110 
51 72 105 43 
-20 -122 111 -20 

-85 97 32 -106 
25 116 -9 98 
-9 23 -74 81 
7 -90 -48 -111 

-28 69 -52 -112 
-46 -107 110 -20 
97 -96 -88 -39 
98 49 55 -55 

-81 114 89 52 
39 -69 -31 15 
27 -104 70 40 
-96 70 97 -19 

-105 100 71 -71 
64 4 -108 -12 
-83 -75 -70 115 
-100 118 -10 91 

-20 -117 88 16 
-75 -19 -109 -65 
125 -105 -63 24 
106 75 -87 -37 

88 117 -45 102 
-67 -80 -36 -80 
-63 -30 53 45 
45 1 -28 56 

41 93 76 38 
-27 103 109 13 
48 119 -83 41 
-94 -21 93 -89 

-2 77 21 41 
74 111 -110 -70 
-114 70 61 -121 
-73 123 -37 -90 

-16 47 -113 -6 
46 -110 101 44 
120 -29 0 -33 
122 109 121 69 

-21 -37 74 -122 
100 58 84 65 
121 -47 41 -90 
92 61 -127 60 

-103 79 -57 -36 
-110 -123 7 87 
88 121 69 28 
-13 28 -32 22 

-25 -84 -24 -115 
35 125 124 17 
47 109 41 -94 
-89 15 89 105 

33 -68 82 120 
75 -19 27 -69 
0 -70 98 -96 
64 -93 -77 122 

-11 -101 -99 -113 
-32 -79 111 121 
-26 -82 105 -44 
-94 37 10 51 

-106 -13 117 -98 
10 21 -94 102 
-46 -55 -112 -123 
71 -72 26 -28 

-53 -11 104 121 
-98 -10 -93 121 
-32 80 110 123 
-113 -31 -51 -6 

-46 46 -42 -4 
-62 -51 -71 -52 
-83 -25 94 -110 
-69 -9 -40 84 


